/*This file is automatically generated from a Keras model*/

#ifdef HAVE_CONFIG_H
#include "config.h"
#endif

#include "rnn.h"
#include "rnn_data.h"

static const rnn_weight input_dense_weights[1008] = {
   44, -13, 0, 44, -18, -4, 54, -69,
   3, -12, -4, 3, 6, 6, 77, -1,
   -7, 4, -1, 17, -2, 3, 2, 3,
   -54, -1, 20, 32, 14, -3, 50, -22,
   -16, 19, -3, -5, 49, 19, 12, 48,
   5, -37, -35, 25, 4, -4, 17, 16,
   36, -19, -26, -18, 15, -33, -36, 44,
   17, -7, 4, -32, -31, -35, -3, 29,
   -11, -49, -35, 45, 49, -74, 34, -16,
   -70, -12, 64, 4, 43, 125, 64, -19,
   -9, -39, 25, -20, 102, 4, -18, -12,
   -27, -54, -14, -10, 43, -41, -16, 41,
   80, 2, 26, -88, 16, -83, -60, 6,
   -48, 76, -67, -34, -29, 3, 1, 49,
   -44, -46, -2, 9, -32, -2, -40, -25,
   -53, 45, -79, -54, -6, 66, -94, 56,
   64, 20, -128, -15, -15, 11, -10, -15,
   -6, -49, -33, -35, 8, 51, 6, -54,
   92, -102, 125, 2, -50, -42, -26, -32,
   64, -52, 87, 27, 30, 123, 123, 56,
   -40, -95, -11, 20, 42, -23, -54, 9,
   -18, 5, -128, -42, 79, 77, -128, 42,
   -97, 67, -53, 23, -7, -121, 27, -87,
   37, -17, -34, -34, -107, 64, -51, -72,
   58, -95, 16, -19, -84, -60, 37, -104,
   56, 6, 60, 41, -33, -5, 7, 8,
   -3, -16, -78, 123, 51, 41, -43, -64,
   -79, 107, -3, -118, 67, 127, -128, 99,
   31, 111, -25, 96, -33, -88, -123, 116,
   105, -123, -20, 22, 22, 102, -32, -128,
   24, -101, -46, -14, -41, 16, -121, 5,
   -71, 24, -128, 103, -91, -17, -38, -87,
   110, 85, 22, 68, -18, 53, -89, -128,
   4, 113, 120, -83, 30, -12, -26, 25,
   73, 51, 21, -19, -64, 95, -68, 0,
   17, -69, -100, 5, -83, -21, 55, 19,
   -1, -128, -127, -68, -124, -32, 4, -120,
   -84, -3, -21, 85, -117, -6, 29, -66,
   -43, 96, 61, 127, 68, 119, -72, -127,
   -6, -31, 8, -56, 31, 67, -94, 18,
   -3, 88, -52, 127, -50, 14, -99, 85,
   84, -39, -72, -31, 46, 117, -99, -36,
   80, -125, 56, -2, 73, -128, -67, 12,
   47, -54, -77, -29, -128, -8, 2, -39,
   -24, 124, -54, -128, 23, -26, 53, 29,
   91, 113, 77, -88, 78, -19, -56, 85,
   59, 59, -92, 108, -128, 23, -14, 127,
   -128, -41, 68, -128, -128, -30, 86, -121,
   34, -128, 127, -68, 12, -125, 16, 8,
   127, -28, -99, 102, -56, 127, -110, 127,
   14, 127, 101, -84, -90, 64, 79, -114,
   127, 51, -115, 60, 93, -51, 19, 50,
   -116, -24, -41, 56, -82, 15, 32, -124,
   88, 125, -126, -118, 111, 118, -113, 40,
   127, -120, 10, 69, 40, -58, 44, -54,
   30, -123, 106, -42, -128, 110, 100, -4,
   -122, 65, 15, -50, 12, 25, -64, -49,
   70, -117, 127, 4, 86, -101, -100, 118,
   123, 99, -109, 24, 23, 113, 37, 127,
   -46, -38, 114, -116, -126, -83, 108, -117,
   -33, -67, -127, 2, -84, -128, -80, -32,
   -126, -20, 86, 52, -126, -55, 127, -126,
   127, 127, -76, 5, 42, 90, -119, -106,
   -47, 63, -1, -42, 49, -19, 37, -87,
   -10, -128, 105, -29, -20, 99, 12, 110,
   -121, 44, 105, -5, 42, -4, 123, 92,
   127, -44, -100, 116, 120, 13, 42, 58,
   108, 50, -119, -70, 123, 4, -27, 5,
   -126, 59, 124, -127, -34, -32, 127, 110,
   -47, -58, 35, 24, 47, 20, -1, -82,
   26, 70, 20, 32, -43, -59, 18, 65,
   -53, -128, 123, -50, -128, 10, 28, 101,
   -128, -87, -54, -22, 42, -76, 127, -85,
   -9, 102, 84, 29, 13, -93, 12, 48,
   97, -128, 53, -84, -128, -36, -82, -16,
   127, -43, 127, -12, 127, 3, -38, 93,
   127, -8, 11, -128, 59, 127, -114, 124,
   -125, -128, 95, -128, -54, -119, 118, 127,
   -128, -103, -69, -33, -112, -100, 78, -84,
   -14, 11, 115, 57, -21, -85, 19, -51,
   79, -87, 123, 22, -128, 113, -63, 18,
   -35, -104, -91, 18, 45, 4, -33, 71,
   -43, 4, -128, -70, -73, -89, 41, 42,
   94, -75, -96, -53, 40, -57, -17, 118,
   -33, -73, 34, 127, -80, -72, -100, 30,
   127, 105, 7, 119, 82, -89, 17, 124,
   -45, -24, -81, -53, 118, -89, 119, -40,
   -8, -45, -18, 100, 22, 11, -88, -56,
   14, -51, 80, -51, 5, -5, 85, 13,
   -38, -16, 19, -10, 65, -73, -77, 22,
   -5, 37, 33, -22, -73, -37, 94, -7,
   -16, 30, 69, -71, 45, 43, 29, -67,
   33, -92, 54, 86, 6, -59, 3, -57,
   46, 5, -46, -18, -29, 91, -66, -52,
   62, 72, 1, 10, 34, -10, 16, -55,
   -18, -6, 113, -64, 71, 74, 11, -92,
   -60, -2, -4, 0, 112, 42, 31, -59,
   4, -42, 48, 7, 21, 47, 97, 37,
   6, -44, -80, 115, 127, -73, 34, -24,
   -43, 4, 0, 30, 84, -13, -55, 97,
   -12, 13, 39, 88, 112, -25, -34, -43,
   -3, -3, -52, -119, -5, 49, -39, 8,
   36, -47, 15, 100, 58, -52, 34, 1,
   106, -79, -39, -128, 47, 77, 23, 63,
   -110, -30, -25, -100, -125, -128, 127, 82,
   72, -92, 8, 114, 32, -34, 82, 24,
   100, -128, 60, -92, 57, 56, 72, 41,
   -57, -44, 123, -37, -125, -128, 127, 124,
   -20, -92, -25, 109, -34, -100, 125, -75,
   -37, -92, 117, -12, 33, -20, -8, 41,
   -35, -98, 121, 126, -30, 8, -128, 127,
   50, -105, 22, 105, -28, 34, 28, -71,
   37, 11, -70, 10, 3, 79, -13, 99,
   -54, -39, -12, 40, -122, -68, 93, 11,
   -19, 30, -118, 35, -111, -106, -3, -55,
   6, -53, 19, 18, -20, 14, -6, 32,
   -99, -60, -74, 18, 44, -123, 118, 30,
   -99, -125, -60, -58, -101, -128, 37, 69,
   -21, -112, -20, 5, -99, 23, 74, 18,
   -29, -127, -56, -5, 20, -94, -17, 33,
   39, 31, 22, -103, 63, 39, -45, 6,
   -8, 48, -3, 121, -40, 20, -44, -47,
   36, -68, 19, 7, 28, 63, -77, 31,
   -16, 21, 87, -1, -123, -77, 119, -102,
   -8, -55, 85, -12, -40, 113, -88, 2,
   -123, 106, 38, 102, -10, -107, 89, -70
};

static const rnn_weight input_dense_bias[24] = {
   -17, 127, 7, -18, 33, 122, -9, 25,
   -57, 52, -11, 19, 93, -49, -68, -3,
   48, -71, -92, -38, 21, 35, -24, -24
};

static const DenseLayer input_dense = {
   input_dense_bias,
   input_dense_weights,
   42, 24, ACTIVATION_TANH
};

static const rnn_weight vad_gru_weights[1728] = {
   -43, -33, 81, 47, 14, -46, 8, 13,
   85, 86, 47, -87, 49, 43, 14, 57,
   74, -66, -52, -61, -25, -17, -58, -13,
   -7, -76, 4, 15, 8, 10, 9, -52,
   -80, -26, -90, -43, 7, -91, 0, -57,
   -52, -50, 34, 18, -43, -50, 9, 16,
   13, 13, -62, 53, -52, 15, -57, 37,
   -6, 40, 15, -11, 5, 12, 9, -66,
   -30, 56, -39, 8, 35, -14, 16, -52,
   92, -41, -84, -78, 64, 102, -20, 98,
   -53, -68, -128, -115, 33, -45, -76, 15,
   11, -52, 124, 11, -46, -8, 64, 5,
   -93, 27, 0, 37, 75, 32, 5, 19,
   35, 58, 88, 7, -32, 25, -40, 114,
   37, 29, -25, -51, 35, -16, 38, 13,
   78, -63, -51, -69, 25, -34, 43, 45,
   12, 46, 56, -9, -4, 51, 6, -36,
   -35, -3, -119, -63, 23, -53, 22, 54,
   79, -37, -128, -127, 25, 99, -86, -125,
   18, -83, -128, 17, -128, -126, -46, -128,
   -126, -36, 84, -14, -127, -117, -128, 7,
   59, 63, -73, 14, -40, 61, -21, 2,
   -51, -12, 5, 9, 5, -2, -7, -23,
   70, -40, 102, 79, 34, -38, -52, 9,
   49, 98, -12, 52, 4, 97, -60, -48,
   46, 32, 53, 2, 15, -21, -32, 74,
   -23, 61, 4, -63, -53, 26, -2, 25,
   84, -33, -15, -15, -88, -88, -10, 3,
   123, 109, 68, -2, -1, -41, -6, 26,
   21, -12, 32, 40, 22, -18, -30, -90,
   27, -83, -36, 48, 40, 35, 54, 60,
   -51, -5, -31, 3, 49, -28, 3, -12,
   19, -9, -31, 75, 79, 2, -55, 11,
   -14, 28, 79, 32, -35, 63, -24, 26,
   54, 15, -28, 19, -17, -35, 66, 11,
   16, 13, 46, -52, -2, 70, -4, -23,
   71, -26, 0, -107, 25, 127, -9, -20,
   -84, -105, -19, -32, -3, 7, -22, 4,
   -47, -17, 78, 77, -30, -10, 50, -51,
   46, 28, 33, 48, -13, 103, -3, 9,
   37, 62, 113, 41, -32, 95, -30, -24,
   90, 46, 10, -32, 0, 77, 33, 25,
   -45, -17, 48, 73, 24, -11, -43, -16,
   -43, 4, -7, 43, 65, 11, 32, -37,
   -30, 61, -4, -71, -7, 43, -9, -53,
   126, -73, -42, -54, 71, 120, 27, -13,
   -94, -125, -114, -35, -64, -59, -95, 29,
   -126, -34, 114, -3, -2, 16, -14, -46,
   -13, 14, 24, -8, 29, -15, 88, 46,
   86, 31, 5, 74, 80, 63, -16, 66,
   30, 14, 36, 78, 33, 41, 40, 90,
   64, -27, -3, -1, -10, -51, 7, 68,
   -43, 23, 29, 57, -39, -23, -4, 13,
   -12, -58, -59, 17, 64, -54, -41, 33,
   80, -69, 32, 53, 4, -60, 22, 40,
   -41, -97, -27, -17, -36, 11, -49, -37,
   38, -17, 100, 29, 40, 25, 32, -45,
   1, -80, 36, -2, 47, -22, 8, -9,
   -29, -16, 15, 12, 1, 47, -37, 9,
   -9, -68, 3, -29, 7, 2, 11, 94,
   40, -16, 55, 4, -10, -47, -13, 39,
   -2, -47, 0, 27, 45, -34, 40, 11,
   -47, -57, -67, -37, -55, 58, 49, 14,
   48, 27, 7, 43, 81, 127, 60, 89,
   17, -15, 50, 7, 127, 26, -48, -11,
   -39, -28, 56, 21, -26, -24, 86, 11,
   53, 11, -16, -57, -61, 116, -16, -32,
   46, 93, 68, -20, 58, 79, 23, 42,
   -46, 6, -41, 1, 19, -37, 101, 22,
   3, -39, 5, -29, 38, 18, -11, 31,
   0, -9, -68, -9, 3, -6, 61, -81,
   24, 41, -52, 43, 4, 27, 2, 15,
   -50, -67, -120, -26, -109, -31, -77, 119,
   -98, -62, -46, -56, 127, 7, 40, 18,
   -95, 10, -123, -14, -119, -33, -84, -1,
   -34, -88, 24, 78, -41, 5, 36, -21,
   -64, 8, 58, -16, 56, -34, -29, -71,
   -86, 3, -85, -120, -35, -28, -83, -41,
   -27, 43, 38, 95, -10, -37, -29, -27,
   70, 7, 81, -63, 36, 8, 47, -13,
   24, 101, 82, -61, -85, -4, -94, 11,
   37, -9, 10, 61, 75, 90, 67, -51,
   1, 39, 8, -21, 38, 29, -125, 26,
   -95, 121, -3, 49, -55, -105, 125, 12,
   43, -20, -33, -54, 31, -13, -33, -56,
   19, -6, 4, 5, -7, 64, 76, 36,
   5, 82, -50, 25, -21, 56, -28, -58,
   -51, -31, -56, -26, -8, -6, 38, 50,
   17, -22, -26, -46, -16, 72, -14, -13,
   -13, 14, -18, -31, 46, -36, -42, 14,
   -106, -23, -41, -15, -116, -124, -52, -67,
   92, 73, -18, 100, -118, -114, 33, -21,
   -5, 61, 13, -91, -98, 29, -128, 83,
   8, 0, -25, -41, 106, -128, -2, -119,
   -54, -93, -38, -11, -48, -47, -57, -17,
   -91, -51, -59, 47, 5, -13, 22, -8,
   62, 66, 39, -36, 54, 92, 15, 1,
   81, -72, 18, -27, 34, 35, 81, 49,
   57, -35, 1, 13, 1, -52, -3, 101,
   47, -96, -13, 12, 26, -54, 55, 77,
   68, 127, -8, 127, -51, 37, 123, -60,
   112, 121, -22, -11, -20, 111, 28, -48,
   4, 58, -7, 44, -70, 68, -55, 19,
   59, 82, -31, 26, 34, -21, 5, 10,
   30, -55, 16, -88, 4, 31, -20, 65,
   -30, 28, 27, -6, 58, 38, 48, 21,
   -8, 8, -27, 70, -20, 71, -45, -66,
   -6, -31, 10, -43, 0, -77, 0, -90,
   42, -64, 41, -90, 2, 64, 35, -29,
   1, -35, -104, 28, -18, 5, 25, -2,
   -15, 4, 122, 26, 60, -16, 127, -33,
   22, -23, 23, -5, 30, 5, 65, 39,
   60, -6, 75, -62, -12, 88, 38, 6,
   -3, -72, 3, 22, 18, 25, 16, -24,
   51, -2, 2, 58, 43, 46, 20, -3,
   -16, -60, 12, -50, 10, 44, -7, 41,
   42, -4, 45, -79, -45, 27, 15, 56,
   17, -96, -111, -127, 26, -118, -79, 81,
   -54, 0, -127, 86, 116, 119, 127, -47,
   13, -127, -60, -48, -101, -12, -40, 77,
   -63, -40, 29, 47, 26, -35, -51, 91,
   -35, 12, -65, -38, 34, -70, -48, 85,
   74, -110, -39, 12, 39, -32, -116, 62,
   2, 31, 43, 31, 31, 86, 60, 8,
   -14, 19, 31, -44, 46, 2, -2, -21,
   -53, 84, 50, 41, -60, 57, -3, 59,
   -8, 40, -25, -17, -13, -107, -10, -89,
   76, 75, 64, -61, 11, 2, 8, 26,
   100, -30, -16, -40, 62, -42, 10, -42,
   28, -82, -35, -1, -43, 35, 62, 87,
   -32, 8, -97, 15, 27, 10, 36, 29,
   37, -54, 90, -2, -31, -60, -34, -31,
   -27, -44, 18, 22, -10, 50, 6, 12,
   -50, -12, 55, 4, 34, 10, 26, 27,
   48, -25, 66, 4, 12, 56, -22, -29,
   69, 74, 24, 59, -60, -9, 44, -120,
   89, 36, 72, -116, -32, -28, -127, -15,
   68, -117, 9, -22, 28, -112, -6, -4,
   -8, -11, 61, -11, -81, 78, -57, 5,
   7, 4, 41, 68, -47, 56, 78, -54,
   14, -75, 127, 81, 25, 1, 24, 27,
   -2, 39, 90, 67, -20, -34, 23, -92,
   3, -42, 13, -91, 88, -16, 12, 54,
   77, 63, 69, 52, -37, 48, -83, -11,
   18, 11, 118, 97, 5, 112, 60, -126,
   67, 12, 31, -64, -69, -54, -33, 32,
   45, 1, 68, 5, 92, 7, 27, 36,
   -58, 84, 11, 18, 75, 14, -10, 19,
   37, 51, -11, -53, 49, 95, -9, 117,
   119, 0, 101, 24, -22, 69, -13, 10,
   27, -62, -64, -93, 35, 37, -12, 13,
   -105, 86, -87, 27, -88, 51, -61, -47,
   -81, -97, -36, -41, 20, -24, 105, -64,
   -127, -55, -84, 1, 110, -108, -65, 127,
   31, 23, -11, 122, 126, 108, 107, 63,
   77, 31, -109, 12, 41, 81, -72, 92,
   -45, 75, -25, 3, -91, -128, -33, 28,
   111, -5, 17, -48, 1, 3, 31, -2,
   24, 90, -128, 1, -13, 20, 17, -40,
   32, -27, -1, -10, -25, 10, -67, 88,
   -67, -19, -49, 75, -76, 28, -51, -69,
   23, -30, -9, 42, -4, 9, 3, -19,
   -100, -90, 57, 59, 100, -97, 59, 80,
   -55, 93, 21, 119, 105, 127, 100, -16,
   -41, -13, -81, 21, 113, 125, -1, -91,
   29, -40, -16, -59, -65, -121, -24, -32,
   -16, -121, 1, -64, 11, 40, -50, -128,
   -30, 40, -128, -43, 21, -4, 30, -12,
   -23, 14, 22, 11, 75, -16, -16, -45,
   53, -35, 61, 48, 38, -19, 30, 88,
   118, 17, 36, -27, 18, -28, -70, 88,
   -104, 127, 97, 67, 20, -103, -78, 14,
   121, 121, 30, 40, 33, 45, 56, 101,
   45, -103, -105, 56, 3, 78, -61, 118,
   -27, -16, -18, -39, 12, -66, -50, -36,
   -24, 9, -23, 14, -23, 0, -11, 12,
   -96, 55, 7, -1, -7, -6, -84, -16,
   60, -69, -32, -11, -68, -80, -7, -23,
   -61, 56, 12, -7, -78, -16, 64, 39,
   -28, -63, 23, 25, 26, -40, 39, -30,
   31, 2, 56, 21, -86, -47, 41, 55,
   26, -24, -62, 91, -36, -72, 20, -44,
   21, -40, -18, -23, -128, -80, -42, 42,
   9, 14, 16, 40, 10, 28, -45, 42,
   -5, 65, 56, 72, 127, 39, 22, 74,
   48, 19, 65, 2, 91, 42, -31, 34,
   4, -60, -5, -50, 35, 60, 39, 6,
   -4, 43, -55, -80, -40, -56, 39, -53,
   -17, 40, -2, -8, 50, 54, -57, -50,
   72, -122, 11, -37, 90, -68, 106, 37,
   -2, 113, -48, 111, -48, 108, 121, -63,
   93, 77, -21, -29, 126, 127, 29, 45,
   27, 8, 61, 83, 3, -49, -60, 115,
   -43, 56, -82, -55, 68, -62, 30, 101,
   -18, 51, 49, -29, -41, -25, 62, 119,
   48, -48, -1, -72, 42, 38, 39, 127,
   -15, 101, 15, 70, -69, 40, -127, 1,
   -55, -13, 18, 5, 14, -101, 34, -96,
   -66, 67, -56, 15, -9, -79, -40, 90,
   7, 22, -52, -63, -23, -53, -75, 16,
   6, -43, -47, 106, 46, -97, -19, 80,
   26, -47, 32, -18, 18, 5, -20, -7,
   -5, 27, -25, -50, 81, 59, 66, -42,
   9, 59, 11, -6, 40, -35, 42, -23,
   34, 20, -27, 16, 40, 17, -56, -36,
   75, -100, 63, -111, 0, -70, 55, -6,
   42, 86, -25, 40, -13, 48, -87, 44,
   106, -4, 41, -19, -33, 127, 13, -51,
   -2, -27, -21, -81, -39, -7, -68, -41,
   -17, 3, 127, -19, -48, 51, -42, -102,
   22, 5, 71, 20, -19, 21, 15, -53,
   35, 64, 63, -63, -20, -9, 27, 56,
   96, -106, 91, -2, 34, -9, -15, 2,
   -19, 41, 125, -23, -46, 83, 6, -91,
   72, -98, 69, -64, 123, -107, 72, 86,
   -2, -9, -12, -101, -42, 15, -26, 19
};

static const rnn_weight vad_gru_recurrent_weights[1728] = {
   0, -42, -1, -23, 58, 126, 32, 120,
   -123, -114, -20, 74, 113, 30, -68, 41,
   -76, 95, 122, 117, 74, 46, 52, 99,
   86, 61, 2, 9, 61, 9, 48, -33,
   44, 57, 0, 49, 95, 26, -40, 51,
   -56, 20, -13, 67, 63, 70, -20, -24,
   36, -19, -39, -37, -9, 77, 53, 43,
   -121, 43, -70, 38, 16, 65, -40, -23,
   -54, -97, -40, 56, 70, -33, 84, 57,
   -62, 91, -46, 1, 8, -86, -13, -85,
   121, 19, 19, -30, 21, 102, 48, 39,
   76, -24, -111, -119, 6, 5, -56, -50,
   -69, -59, -80, -33, -51, -49, -27, -47,
   -33, -112, -2, 32, -78, -24, -28, -39,
   -21, 35, 13, -53, -64, -59, -46, 32,
   -74, 50, -5, -26, -63, -8, -2, -71,
   31, -8, -52, -14, 30, -42, -14, 6,
   59, -16, 24, -24, -43, -14, -48, 81,
   -5, 94, 116, 127, 61, 30, -21, 97,
   127, 98, 99, 110, 50, 75, 116, 59,
   123, 86, 23, 56, 83, 89, -64, 24,
   -6, -46, 62, 16, 15, 39, -26, 57,
   -18, 2, 0, 79, 42, -20, -18, 65,
   57, 6, 20, -1, 42, 69, -5, 81,
   -33, 11, 41, 17, -8, 19, -5, -63,
   -23, -40, 19, 33, 21, -34, 37, 78,
   57, 32, 77, -108, 24, 52, -16, 83,
   -52, 24, -14, -46, -24, 17, -75, 61,
   4, -128, 40, 73, 117, 110, -60, 108,
   -104, 12, 15, -82, -82, -11, -74, -73,
   -21, -25, 42, 2, 84, 19, -3, 6,
   23, 38, -10, 88, -27, -45, 52, 13,
   -27, -31, -62, -21, 11, 92, -128, -29,
   -22, 40, 69, 59, -125, 48, -58, -80,
   7, -71, 68, -57, 117, -88, 11, 125,
   -41, -12, 107, -52, -82, 63, -40, 50,
   93, -72, -20, -37, 45, 57, -22, -45,
   -128, -125, -115, -117, 28, 5, -107, -21,
   -110, -60, 42, -10, -29, -41, -5, -67,
   37, 50, -21, -10, 43, 36, 16, 26,
   17, 12, -18, 32, 10, 47, -15, 23,
   4, -45, 2, 29, 12, 10, 82, -11,
   81, 16, -64, -13, 4, -27, 66, 90,
   -44, 64, -19, 46, -66, 30, -51, -59,
   -124, -20, -11, 96, 23, -34, 39, -48,
   -74, -66, -80, 3, -70, 125, -24, 32,
   -16, -68, -50, 13, 60, -72, -16, -121,
   -104, 126, 127, 91, 77, 27, -121, -20,
   4, 37, -76, -17, 58, 56, -23, 45,
   17, 16, -21, -3, 101, 14, -39, 117,
   -9, -37, 93, 126, 20, 19, -48, -65,
   60, -128, -125, -50, 75, 127, 54, 70,
   -127, 127, -128, 21, -90, 127, -114, -127,
   -62, -55, 6, -38, 59, -89, 88, 8,
   70, -56, -3, -54, -68, 48, -82, 78,
   -121, -47, -39, -7, 66, 87, -21, 105,
   -39, -27, 74, 29, -83, 10, 47, 61,
   30, 62, -14, 0, 42, 33, -35, -38,
   29, 15, -9, -25, -24, -23, -30, -27,
   -46, 53, -6, 1, 67, 75, 91, -2,
   90, -79, -17, -19, 28, -5, 50, 8,
   -5, 62, -30, 88, -70, 41, -71, -17,
   10, -67, -20, 28, 62, -23, 56, -33,
   47, -108, -91, -87, 81, -9, 10, -42,
   -128, -112, -69, -49, -18, -17, -73, -30,
   -95, -73, -94, 25, -68, -11, 77, 43,
   -12, -22, 42, -4, 28, -57, 28, 13,
   -82, -17, 37, 49, 13, 3, 21, 0,
   -22, -11, 44, -9, -4, -7, 21, -8,
   25, -43, -23, 28, 67, -54, 80, 30,
   -61, 32, 56, 26, -42, 60, -76, -21,
   -8, 39, -4, 68, -15, -14, 23, -13,
   -54, 25, 25, -55, -19, 18, -15, -23,
   66, 62, -80, 24, -18, 22, -29, 29,
   7, -15, -20, -81, -119, -23, -127, -86,
   3, -5, -49, 27, 32, -8, 46, 7,
   11, -40, 93, 27, -5, 11, -32, 12,
   27, 10, -49, -2, 19, 5, -80, -1,
   23, -27, 49, -36, 9, -5, 13, -37,
   47, 5, -48, 15, 117, -7, 82, 24,
   50, 105, 1, -59, 9, 82, -64, 30,
   41, -75, -121, 29, -55, -10, 53, -10,
   -127, -112, -30, -8, -43, -91, -11, -124,
   -118, 29, -9, 8, -26, -64, 67, -15,
   -31, -12, -8, 81, -31, -26, 15, 22,
   -52, 3, -1, -8, -10, -13, -25, 10,
   -46, -39, 22, -61, 25, 0, 52, -32,
   -15, -38, -57, -11, 97, -20, -46, 84,
   28, 64, -18, 3, 14, 13, -15, -48,
   -34, -8, -24, 95, -24, -26, 44, -80,
   -105, -51, -127, -4, -36, 39, -26, -78,
   -34, -128, -29, -53, -24, 94, -26, 9,
   -35, -121, -23, 12, -99, -21, -123, -53,
   43, -25, -6, 28, 68, -41, 53, 26,
   -18, -28, 8, 13, -51, -36, 20, 49,
   -32, -10, -46, 42, 85, 47, -13, 42,
   -5, 121, 123, 115, -84, 67, -49, -51,
   40, -106, 69, -56, 123, -31, 45, 122,
   126, 15, 67, -45, -123, 21, -53, 117,
   56, 3, 93, -8, -36, -51, 77, 9,
   -27, -52, -68, -65, -54, -84, -61, -82,
   54, -89, -68, -28, 113, -123, 63, 59,
   26, 3, 22, -20, -24, -20, -1, -5,
   -62, -64, -4, -64, -13, -27, -10, 38,
   -48, -21, 90, -19, -24, -24, 98, 14,
   74, -54, -80, -102, 66, -36, 81, 89,
   -28, 38, -9, 12, -84, 25, -16, -64,
   -104, -35, -18, 10, 31, -123, 20, -128,
   -62, 73, -1, 90, -86, 2, -45, -24,
   30, 39, 7, -13, -22, -6, 36, 80,
   100, 55, 43, -14, 38, -19, -61, -15,
   -45, -54, 50, -29, -5, 12, 12, 33,
   7, 16, 57, 29, 29, 51, 14, -27,
   -39, -24, 3, 15, -57, -5, -62, -6,
   24, 36, 65, 12, -46, 52, -88, -76,
   37, -7, 11, 71, 37, 16, 22, 41,
   25, 5, 70, -37, 47, 23, -2, 5,
   74, -128, -49, -66, 37, -4, 55, 33,
   -127, -96, -75, -26, 42, -30, -103, 41,
   -99, -94, 31, 28, -19, -60, 57, -41,
   -13, -3, -58, 45, -75, -3, -19, -18,
   -48, -33, -115, -27, -44, 24, -5, -37,
   -17, 0, -36, -63, -28, -88, 64, 40,
   87, -64, -20, 6, 90, -11, 50, 91,
   -65, 74, -2, 59, -126, 25, 9, -92,
   -92, -23, -69, -19, -5, -20, 82, -59,
   31, -10, 20, 24, 20, 66, 30, 27,
   8, -12, 26, -49, 25, -128, 0, 5,
   3, -24, 117, -52, 27, -24, -70, -72,
   -8, 23, -49, 58, 35, 51, 38, 36,
   53, 58, 33, 75, 82, 57, 37, 50,
   14, -15, 21, 49, 76, 118, -42, 52,
   -23, -11, 20, 14, -60, 0, -63, -73,
   -32, -82, -7, -10, 94, 10, 39, 52,
   55, -9, 28, -99, -46, 19, -47, 4,
   5, 26, -38, 85, 21, -17, 36, -104,
   110, 115, 68, -1, 21, 11, 53, -54,
   60, 80, 59, -90, 95, 3, -70, -49,
   51, 4, -20, -11, 81, -24, 3, 19,
   6, -14, -20, -12, -5, -5, -42, 6,
   31, 5, 30, 33, 30, 10, -56, 11,
   -34, 53, 41, 0, 51, 12, -7, -77,
   76, 16, 20, 16, 52, -52, 62, -10,
   8, -27, 79, -76, -11, 24, -110, 42,
   -7, 39, 48, 61, 1, 3, 43, -12,
   40, 65, 31, -12, 125, 125, 16, 100,
   60, 11, 31, 105, 127, 24, -86, -14,
   -31, 101, 55, -54, 53, -13, 28, 31,
   80, 27, 75, 72, 55, 54, -29, 37,
   51, -1, -29, 11, 101, 23, 19, 18,
   6, -24, -15, -40, -27, 0, 13, -71,
   18, -27, -29, -13, 50, 20, 33, 29,
   34, -21, 2, -30, -62, -18, 6, 67,
   -63, -12, -84, -2, 77, 89, -96, 41,
   -66, -56, 5, 125, 119, 122, 60, 82,
   -35, 91, -96, -77, -128, 94, -37, -59,
   39, -40, -21, 27, 48, 29, 3, -19,
   -28, 39, 16, -18, 80, -24, 12, 0,
   -16, 12, -33, 23, -17, 39, -4, -33,
   -81, 87, 88, 41, -91, 27, -93, -74,
   116, -55, 60, -17, 15, -31, 35, 86,
   32, 0, -5, -72, -126, 70, -44, 107,
   -128, -49, 30, -14, -119, -66, -123, 33,
   6, -36, 10, -127, 67, -89, -26, -22,
   -4, -72, 50, 127, -120, -28, -127, -15,
   -70, 62, 8, 36, -4, -51, -50, -8,
   32, 30, 83, 14, 99, 9, -26, 84,
   -54, 42, 68, -2, 6, -52, 41, 8,
   114, -83, -23, -114, 58, 58, 97, 11,
   41, 92, -106, 77, -55, 111, -9, -97,
   -5, -19, 112, 21, 56, -37, 79, 44,
   -49, 21, -67, -26, -50, -29, -43, 47,
   -69, -81, -39, -17, 119, 107, -44, 119,
   48, -102, -128, -121, -46, -3, 14, 119,
   -23, 29, -18, -20, -7, 41, 49, -12,
   51, 23, -38, 34, 17, -13, 48, 17,
   -96, 89, 0, -79, 25, 40, 111, -113,
   31, 26, -51, -26, 22, -36, 72, 63,
   -67, 51, -2, 47, -19, 18, -64, -18,
   0, -23, 10, 69, -5, 35, 99, -30,
   57, -68, 20, -13, 56, 28, 52, -14,
   -55, -24, -12, -50, -16, -57, -96, -73,
   -85, -19, -6, 1, -90, -128, 62, -27,
   39, -8, 29, -5, -67, -5, -8, -16,
   51, 64, 26, 68, 72, 99, 11, -22,
   10, 3, 28, -38, 47, 51, 86, -33,
   51, -52, 15, -35, 69, -33, 90, 88,
   -21, 90, 11, 25, -57, 55, -62, -64,
   -69, -59, -49, 67, 87, -113, 13, -31,
   -59, 59, 31, 15, -70, 15, -122, 29,
   127, -66, -26, 109, 81, 64, 127, -12,
   24, 61, 67, -36, 61, 57, -42, -18,
   -3, -43, -57, 2, -44, 46, 45, 13,
   -17, 20, 78, 31, 6, -48, 45, -41,
   -1, -37, -4, -5, 61, 28, -78, -14,
   -49, 12, 23, 21, -44, -40, -42, -80,
   -9, 8, 34, -30, 23, -21, 28, 21,
   58, -64, -5, -51, 11, 37, 39, 97,
   4, -57, 34, 54, 116, 80, 126, 60,
   -30, 32, 11, 54, 34, 99, -11, -59,
   6, 127, 121, 16, 100, 71, 13, 101,
   8, 38, 3, 42, 63, 86, 47, 3,
   -30, 70, 55, -14, 30, 47, 29, 94,
   -15, 32, -59, 1, 38, 22, 31, 5,
   2, -20, -41, -40, 9, 16, 32, 42,
   -63, 5, -19, 7, -82, 0, 12, -56,
   -57, 34, -70, 31, 7, -54, 49, -13,
   -2, 36, -23, 0, 36, 7, -35, 84,
   41, -41, 77, 22, 2, 118, -2, 40,
   -22, 89, 59, -50, 69, 42, -65, 30,
   6, 33, -5, 38, 7, 7, -6, -31,
   127, -22, 42, 84, 45, 23, 5, 70,
   -33, 27, -48, 32, 49, 34, -48, -31,
   52, 24, 78, -52, -37, 67, 19, -28,
   -21, 36, 1, -29, 7, 13, 18, 29,
   63, -36, 42, -116, -16, -2, 24, -3
};

static const rnn_weight vad_gru_bias[144] = {
   77, -79, -43, -90, 117, 121, 78, -85,
   -119, -124, -99, -5, -111, -7, -100, -90,
   -126, -7, 123, 52, 12, -73, -15, -76,
   73, 78, 78, 61, 84, 1, 70, 51,
   58, 73, 61, 31, 53, 97, 23, 109,
   55, -2, -9, 58, 59, 89, 12, 73,
   3, -17, -2, 4, 11, 17, 10, 28,
   -7, 10, -7, 2, 23, 7, -21, 7,
   -7, -8, -53, -14, 7, -14, 32, 9,
   77, -79, -43, -90, 117, 121, 78, -85,
   -119, -124, -99, -5, -111, -7, -100, -90,
   -126, -7, 123, 52, 12, -73, -15, -76,
   73, 78, 78, 61, 84, 1, 70, 51,
   58, 73, 61, 31, 53, 97, 23, 109,
   55, -2, -9, 58, 59, 89, 12, 73,
   -4, -28, 7, -4, 11, 22, 11, 41,
   -18, 2, 12, -5, 11, -2, -22, -2,
   1, -12, -27, -17, -4, -10, 18, 21
};

static const GRULayer vad_gru = {
   vad_gru_bias,
   vad_gru_weights,
   vad_gru_recurrent_weights,
   24, 24.0, ACTIVATION_TANH
};

static const rnn_weight noise_gru_weights[12960] = {
   3, -2, -17, 5, 4, 91, 8, 12,
   33, 9, -12, -1, -7, -14, 21, -36,
   -48, -18, 11, -38, -13, -1, -28, -11,
   64, 28, 39, 52, -40, -21, 14, -21,
   43, 33, 4, 22, -58, 65, 34, 26,
   -31, -26, -32, -38, 46, -63, -13, -24,
   -11, 12, -57, -4, -35, -8, 49, -54,
   -29, -7, -36, -5, -46, -14, 5, -51,
   21, -11, 30, 36, -45, -41, -51, -1,
   -33, 4, -34, -73, -11, -13, -36, 9,
   -44, 4, -15, -49, 16, 61, -51, 20,
   18, -49, -20, -16, 56, -33, 26, -26,
   -51, 31, -21, -16, 9, -34, -23, -18,
   -19, 1, -42, -18, -3, 18, 23, -46,
   8, -19, 15, -4, -22, 2, -24, 32,
   22, 10, 19, -13, -9, 17, 48, 31,
   -46, -11, -20, 28, -35, 42, -41, -28,
   -62, -36, 25, 17, 7, -5, 0, -12,
   9, 16, 17, -14, 1, -40, 24, -53,
   -21, 50, -16, 7, -13, 61, -48, -1,
   -17, 27, -39, -18, 6, -30, -29, -45,
   14, 10, 49, 19, -14, 20, -32, -55,
   -12, -45, -70, -28, 3, -17, 16, -74,
   -32, 2, -70, 30, 10, 29, 7, 23,
   -16, -25, 34, -25, -22, -30, 6, 28,
   8, 28, 25, -25, 48, 63, 32, -10,
   24, 41, -6, -11, 0, 16, 1, -52,
   -26, 46, -31, 23, 28, 28, 8, 23,
   -5, -33, 31, 1, 15, 55, -23, 23,
   15, 85, -24, -9, 4, -14, -21, -2,
   -39, 6, -9, 44, 66, -38, -1, 29,
   21, -33, -20, -11, 25, -42, 8, -31,
   -11, -32, -9, 18, -1, -2, -12, 10,
   1, -24, 12, 6, -19, -17, 23, -30,
   -37, -28, 4, -1, 0, -23, 16, 18,
   4, -32, -17, -6, -26, 1, -10, 2,
   7, 19, -19, 9, 16, 57, 24, 50,
   21, 70, 10, 24, 31, 0, -7, -91,
   -18, 43, 1, 1, -11, -12, 54, 25,
   -10, -47, 14, -6, 20, 14, -63, -36,
   -32, 28, 66, 93, 32, -14, 20, -59,
   -52, 16, -44, -39, -41, -35, -12, 73,
   42, -23, 25, -19, 18, -15, 13, -43,
   -29, 58, -51, -18, 15, -9, -11, 20,
   -12, 16, -57, 8, 41, -22, -54, -6,
   36, 51, -33, 18, -33, -10, 28, -55,
   77, -54, -27, 0, 24, 25, -30, 9,
   30, 13, 29, 44, 40, -3, -23, -10,
   -9, -18, 32, 38, -21, 7, 2, -99,
   -20, -29, 41, 32, -18, 5, -40, 37,
   16, -15, 5, -14, 23, 16, 28, -19,
   7, -7, 23, -36, 14, 0, 22, -27,
   76, -21, -4, -33, 16, -26, -39, -29,
   67, 40, -18, 22, 8, 47, 60, -74,
   -31, -1, 29, 25, 12, -44, -29, 43,
   0, -33, -14, -22, 66, 31, -65, -12,
   68, 11, -14, -19, 25, 2, -1, -6,
   15, -4, 30, -40, 31, 1, 66, 92,
   12, 23, 6, 16, 6, -77, -21, 30,
   42, 28, 45, 34, 10, 34, -7, 17,
   -12, -1, 4, -33, -26, 12, 15, 19,
   41, -22, -30, -25, 31, -17, -24, 60,
   -67, -58, 2, -5, -32, 20, -5, 33,
   -18, -50, -20, 57, 14, 55, 39, -47,
   16, 11, 53, -16, -40, 40, -33, -9,
   -7, 22, -25, 3, -5, -16, -8, 42,
   -9, -4, -33, 28, -30, 31, 40, 45,
   -35, -6, -13, 30, -49, 19, 23, -91,
   -3, 0, -6, 10, 25, 1, -17, 9,
   34, 43, 21, -17, -33, 14, -34, 57,
   24, -9, 8, -17, -18, 35, 21, -9,
   15, 6, -8, -3, -15, -16, 20, 4,
   -73, -44, -12, 36, -48, -11, 49, 1,
   20, 20, 14, -55, 42, 29, -23, -29,
   29, -24, 24, 10, -13, 12, 12, 36,
   -14, -21, 51, 31, 21, -4, -59, -39,
   -46, -6, -68, 28, 50, -65, -4, -5,
   5, 37, 10, -34, -74, -62, 0, -5,
   77, -7, 35, -14, 36, -8, -26, 11,
   27, 9, 9, 3, 18, 48, -17, 13,
   28, 2, -6, -27, -9, 63, 12, -47,
   25, 43, 8, -21, 2, 34, 41, -1,
   64, 6, -29, 15, 15, 25, 21, 16,
   -31, 78, -4, 17, -49, -5, -42, -1,
   -28, 17, -36, -27, 13, -21, -25, 63,
   -2, 21, 29, 25, -9, 2, 0, -18,
   -1, 14, -34, 22, 43, 3, -30, -50,
   30, 39, 18, 64, 31, 4, 9, 34,
   93, 12, 7, -25, -44, -12, -40, 12,
   39, -20, 19, 12, -4, -11, 16, 7,
   -43, -68, -24, -1, -57, 9, 69, -18,
   -3, -8, 66, 3, -16, 60, 37, 11,
   -30, -17, -26, -22, -54, 29, -33, -3,
   -43, 5, 9, 7, -51, -22, 58, -30,
   -50, -17, -26, 36, 73, -39, -64, -30,
   5, -44, -19, 27, -40, 20, -9, -11,
   -21, -1, 36, -26, -16, -21, 2, 0,
   -17, -24, 56, -6, 60, -23, -28, 20,
   53, -15, -33, 22, -27, 8, 21, 51,
   -7, -16, -14, 40, 10, 21, -22, 69,
   -41, 5, -58, 5, 47, -11, 6, 34,
   11, -14, -33, 30, -7, 2, -20, 36,
   41, 23, -17, -22, -46, 32, 17, -16,
   38, -62, -37, -49, 39, -10, 29, 24,
   41, -32, -24, -25, -6, -7, 4, 41,
   -17, 20, -2, 15, -31, 18, -31, 7,
   -31, -24, 20, -39, -5, 17, -7, 22,
   -24, -53, 17, 45, 30, -17, 6, -18,
   -23, 14, 49, 18, 17, 106, 10, -22,
   4, 28, -29, 42, -3, 41, -50, -10,
   56, 55, -37, -50, 31, 9, -9, 17,
   5, 5, -38, -68, 42, 22, 28, 40,
   6, 56, -69, -17, 13, -99, 34, 32,
   46, 44, 25, 33, -14, 17, -11, 25,
   1, -31, -25, -27, -16, 40, 16, -27,
   60, 21, -15, 4, -13, -53, -3, -22,
   -37, 1, 29, 5, 35, -4, 29, 13,
   -56, -27, 50, 58, 11, 53, 56, 8,
   54, -24, 46, -15, 9, 13, -12, 21,
   -20, 27, -31, 36, -10, -49, -21, 13,
   8, 1, 44, 1, -26, 15, 23, -28,
   25, -15, 32, 33, 5, -27, -13, -43,
   -3, 1, 9, 9, 11, -11, -1, -11,
   6, -2, -17, -33, 2, -13, -16, 14,
   6, -10, 1, -6, 37, 48, 21, -16,
   4, 16, 48, -17, -19, 21, 4, 0,
   46, -26, 27, -24, 22, 39, -8, -28,
   3, 54, 62, 70, -15, 25, -31, 32,
   10, 24, -20, 12, 53, -50, -16, 32,
   20, 2, -39, 15, 11, 6, 47, -48,
   28, 5, 65, -27, -3, 21, -44, -26,
   -3, -22, -128, 9, -12, -16, 19, 7,
   13, -16, -39, -13, -50, 4, 13, -14,
   -45, -5, 49, -48, -3, 12, -20, -42,
   9, 40, -44, -8, -12, -9, -12, -10,
   45, 40, -4, 9, 19, -40, 46, 7,
   -15, -32, -36, 14, 12, -18, -53, -18,
   74, 3, 52, 39, 32, 58, 53, 49,
   -47, 43, 34, 15, 44, -19, 7, 2,
   -14, 41, -15, 36, -36, 18, 9, 33,
   47, 49, -28, -37, -3, -25, 27, 41,
   -32, -21, -13, 14, 12, 29, -35, 13,
   17, -10, -10, 4, -20, -16, 41, 12,
   28, 17, 10, -41, 4, 49, 17, 7,
   -17, 15, 49, -32, 63, 62, 34, -118,
   12, -57, -17, 37, -27, 37, 11, 65,
   -63, -21, -4, -53, 65, 10, 21, -126,
   -53, 48, -39, 78, -31, 60, -84, 25,
   29, 21, -69, 6, -57, 4, -44, -47,
   31, 17, -126, -61, 30, 27, 30, 14,
   90, 42, 35, -63, 5, -9, 39, 35,
   15, 84, -33, 46, 13, 39, -86, 32,
   -34, 53, 31, -25, 61, 8, -14, 61,
   54, -72, -54, -55, 78, -31, 24, 3,
   17, -24, -21, -63, -33, -5, -17, -79,
   -48, 18, 83, -6, -7, -22, -48, 10,
   -63, 28, -52, 3, -23, -63, 47, 71,
   -18, -25, -70, 13, 34, -11, 16, 2,
   -12, 18, -36, -11, 15, -32, -22, 0,
   -3, 0, 6, 1, 25, -9, -2, -89,
   -23, -35, -71, 14, 49, 20, 71, -48,
   16, 10, 79, 21, 24, -71, -34, 5,
   -26, -41, -28, -49, -63, -16, 11, 9,
   6, 7, -45, 4, 15, -16, 51, 48,
   15, -42, -58, 32, 11, 6, -15, -50,
   45, -52, 37, 10, -1, 11, 26, 19,
   8, 43, 42, -43, 14, -14, 28, -58,
   18, 5, -51, 14, -6, -64, -33, 16,
   -52, -61, -67, 17, -43, 30, 35, -33,
   -2, -29, 49, -35, 0, 33, 8, -67,
   42, -24, 18, -88, 38, 44, -32, -1,
   0, -9, -20, -43, -36, -27, 6, -6,
   -14, -7, -45, -69, 40, -12, 62, -6,
   52, 91, 14, 34, -14, 53, -22, -49,
   -20, -25, 9, 39, -27, 29, -20, 50,
   -9, -46, 16, -22, 33, 20, -25, -6,
   -13, 34, -28, -18, 7, 47, 8, -32,
   -3, -23, 19, 53, 13, 16, 13, -5,
   2, 16, -5, -61, -25, 38, -51, 3,
   -9, 16, -23, 15, -72, 43, 10, -2,
   12, 3, 29, -91, -32, -16, 2, 67,
   -35, 1, 25, -48, 4, 13, 42, -108,
   65, -25, -19, -1, -28, 6, 7, 96,
   13, -30, -39, -23, 30, 3, 4, -28,
   42, 39, -13, 26, -8, -11, 16, 3,
   92, 20, 9, -13, -10, 16, -28, 39,
   -30, -18, -8, 10, 23, 9, -40, 40,
   -26, 10, 9, -10, 0, -63, 5, 6,
   -60, -14, 0, -8, -7, -19, -41, 20,
   17, -32, 29, 34, -31, -43, -6, -12,
   29, -62, 0, -48, -19, 45, -31, -41,
   5, -49, -18, 26, -15, -62, 39, -49,
   -18, 47, 7, 11, -30, -15, 12, -43,
   30, 15, -18, -4, -39, 12, 17, 42,
   -36, 14, -16, -32, -44, 43, -22, 8,
   -28, 25, -17, -9, -48, -8, -4, -30,
   -11, -21, -13, -3, -36, 38, 68, -11,
   37, 25, 56, 10, 16, 12, -4, -13,
   -64, -52, -6, 1, 43, 11, -25, 5,
   -46, 76, 56, -44, -1, 32, 4, 21,
   29, -39, -34, -94, -6, -53, 22, -32,
   72, 1, 67, -53, -25, -32, 35, -65,
   -9, -53, 3, -80, 68, -65, -27, 15,
   -37, 46, 17, 33, 18, -30, 31, -23,
   86, -55, -27, 25, -32, 4, 10, 4,
   24, -24, -40, 23, -43, -17, -6, -20,
   30, -40, 13, 41, 42, -25, 15, 63,
   2, 63, -32, 31, -34, 35, -1, 26,
   -13, -90, 56, -59, -7, -45, -8, 24,
   -51, -31, 3, -3, 0, 79, 75, 54,
   27, -33, -56, -23, 1, 27, 99, 29,
   15, 6, 6, 71, 34, 8, 29, 38,
   41, 32, 33, -55, -11, 14, 6, 97,
   1, 55, -38, 57, -44, 52, -11, -1,
   12, -4, 19, -7, -38, -12, 4, -7,
   17, 9, 57, 32, 34, 7, 43, 53,
   -13, -2, 10, -27, 14, -15, 16, -19,
   0, 16, -70, -54, 1, 27, -20, 40,
   -16, -8, -17, -43, 48, -13, 13, -25,
   17, -48, 68, -28, -23, 9, -48, -107,
   -22, 15, -71, -12, 28, 19, 9, -22,
   1, 19, -41, -10, 18, 34, 25, -41,
   -72, -41, -14, -2, 34, 33, -24, 36,
   16, 14, 34, 33, 41, 22, 41, 25,
   8, -15, -24, -12, 33, 47, 24, -14,
   -26, 27, -40, 60, 4, 25, 1, -14,
   41, -19, 18, 17, 1, -32, 45, -35,
   -1, 54, -27, -17, -12, 21, 24, -12,
   36, -3, 12, 18, -24, 35, 1, -29,
   -10, 29, -19, 13, -23, -18, 7, 45,
   -24, -38, 9, 26, -10, 17, 0, 3,
   -26, 1, -45, -6, -22, -37, 20, -32,
   -2, 26, 12, -21, 22, -27, -11, -12,
   -9, -28, -18, -9, -2, 29, 18, 17,
   5, 67, -16, -58, 13, 80, 15, 57,
   39, -5, -15, 80, 26, -53, 23, 19,
   -107, 13, -22, 30, -10, 40, -21, 6,
   -74, -29, -24, 86, 56, -6, -10, 42,
   13, 18, -7, 17, 30, -5, 22, -116,
   -13, 34, -35, -7, 23, -4, -13, 15,
   13, -14, 10, 34, -4, 30, -25, -1,
   41, -2, 2, 2, -33, -60, -37, 40,
   -3, 12, 16, -19, -6, -27, -29, -2,
   -17, -27, -7, 1, 2, -31, -27, -39,
   -28, -2, -26, -25, -33, 19, 7, 28,
   19, -19, 18, 11, 44, -41, -3, 0,
   38, 9, -34, 15, 11, 24, -14, -49,
   -66, -49, -28, 7, -75, -1, -10, -28,
   -43, 70, 13, 5, 11, -16, -38, 14,
   15, 17, -23, 34, -21, -24, 7, -7,
   -56, -23, -59, 8, 23, -19, 56, 3,
   89, -11, 58, 19, 35, -30, -36, -57,
   -6, -2, 47, -9, 34, 43, -28, -16,
   -38, -12, -44, -41, 18, -54, -37, 12,
   -40, 5, 0, -79, -33, -8, 29, 27,
   -22, -4, 8, 65, 18, -22, -38, 24,
   -1, -12, 80, 34, -1, 127, 54, 68,
   6, -9, -14, -5, 16, -35, 35, -4,
   25, 4, 33, -31, 80, 44, -31, -3,
   30, -29, -49, -70, -1, -22, -29, 0,
   -46, 15, -4, -21, -17, 13, 68, 29,
   -30, 27, -11, 55, 22, 4, 44, -2,
   25, 3, 20, 9, 30, -7, 61, -30,
   -43, 9, -2, -2, -17, -44, 2, -14,
   -22, -24, 3, -42, -17, 5, 2, 3,
   4, 13, 53, 11, -5, -18, 51, -24,
   -7, -26, 20, -7, -17, -20, -5, -31,
   -52, 67, 18, 5, -25, 14, 1, 12,
   -31, -23, 12, 14, -10, 3, 20, -13,
   -24, 1, -70, 18, 25, -48, 14, 10,
   28, 60, 56, 5, -33, 61, -44, -9,
   -24, -52, -76, 29, 53, -47, 1, -14,
   49, 0, 18, 12, 5, -18, -11, -82,
   40, 9, -2, -9, 51, -26, -59, -47,
   -11, 48, -35, 63, -3, 38, 44, -5,
   -97, 7, -50, -1, 26, -41, -3, 76,
   52, 9, -15, -26, 12, 0, 8, 33,
   -34, -32, 4, -18, -39, -16, 24, -4,
   -15, 6, -35, -94, -19, -39, -58, 9,
   7, 42, -20, 14, -33, -34, -20, -8,
   52, -33, -26, 13, 4, -28, -13, -9,
   -6, -36, -9, -42, 52, -40, 18, -38,
   37, 6, 15, 10, -41, 10, 28, -8,
   -40, -42, -18, -46, 1, 49, -27, -58,
   -39, 34, -8, 6, 15, -35, 39, 42,
   -28, 64, 31, -15, -38, -19, -17, -3,
   60, 11, -93, -50, 35, -4, -46, 0,
   13, -19, 5, 12, -26, -41, -11, -14,
   24, 21, -60, -10, 86, 78, 3, -5,
   65, 71, 80, 4, 122, -10, 41, -84,
   55, -31, 64, 70, 12, -19, -18, 127,
   52, 35, 18, 0, 0, -29, -101, -46,
   16, -8, -21, 47, 39, -17, -23, 74,
   54, -44, 35, 43, 37, 31, 1, -43,
   -2, -56, -10, 33, -11, 33, 23, 5,
   37, -2, 42, 53, 22, 18, 23, -27,
   -40, 15, 0, -36, -18, 34, 9, -11,
   2, 38, -64, -27, -8, -23, 35, -55,
   -47, -9, 122, -60, 7, -54, 17, -16,
   -20, -47, -77, 53, 8, 3, -18, 78,
   -13, -20, -45, -21, 25, -28, -16, -54,
   56, 29, 35, -3, -40, -43, 27, 26,
   25, -1, 12, -85, 58, 30, -37, -50,
   -21, -22, 13, 43, -47, 4, -35, 0,
   -29, 8, -36, -87, 32, -59, -16, -6,
   41, 5, -11, -65, -20, 11, -15, 64,
   6, 37, 18, -46, -85, -15, 31, 36,
   7, 43, 4, 5, -56, 45, 39, 43,
   -16, -12, -91, 6, -30, 21, -78, 28,
   50, 14, 3, -39, -38, 16, -7, 20,
   -43, -5, 77, 42, 4, 17, 17, 38,
   -25, 16, -49, 39, -37, -58, 115, -81,
   -3, 55, 28, 38, 42, -50, 52, 79,
   -12, -45, 43, -28, -16, -14, -2, 32,
   -27, -17, 33, -29, -13, -22, -13, -12,
   -18, -42, 9, 12, 6, -31, -10, 25,
   -19, -5, -4, 22, -35, 20, -14, -50,
   -54, -17, 12, 28, 24, 11, 21, 26,
   -18, -35, 3, -73, 36, 14, 16, -25,
   8, -27, -10, -21, 34, 29, -35, -23,
   39, 22, -34, -43, 22, 26, -48, 12,
   30, 13, 22, 45, 40, 23, -17, 25,
   56, -10, 28, 42, 22, 15, 7, 54,
   -31, -30, 9, -10, 11, 15, -4, -23,
   8, -29, -80, 46, 2, 70, -1, -22,
   14, 19, 11, 11, 28, 6, -14, -39,
   76, 16, -14, 38, 15, -59, 0, -99,
   34, -7, -71, -3, -18, -14, 4, 16,
   22, -44, 81, -31, -52, -7, -13, -8,
   -118, -6, -22, -54, 1, 30, -32, 60,
   -10, -18, -39, 37, -45, -5, -19, -19,
   50, -19, -83, -2, 19, -19, 4, 59,
   -16, -19, -1, 9, -24, 11, 28, 0,
   4, 28, 3, 13, -24, -19, -9, -25,
   6, 0, 6, -5, 89, 47, 4, 39,
   -3, 1, 13, 14, 23, -17, -16, -127,
   15, 31, -1, -31, 6, 2, 27, 35,
   -41, -17, -22, 14, 8, -7, 10, -38,
   -23, 37, -23, -37, -18, -43, -27, 65,
   -5, 7, 7, -34, 46, 2, 8, 9,
   5, -3, 4, -5, -7, 42, -26, 20,
   -38, 26, -2, -13, 21, -48, 30, -1,
   11, 6, 24, -58, 86, -25, -10, 15,
   -16, 14, 6, 44, -5, -60, -11, 21,
   -17, -64, -61, -23, -35, -41, -17, 28,
   -79, -69, -13, -11, -79, 15, 12, 15,
   -6, 10, -9, 53, -4, -6, 51, 76,
   64, 17, 53, 38, -2, -8, -31, -33,
   35, 20, -22, 24, 3, -24, -19, 19,
   -20, 10, -15, 28, -21, -9, -9, -32,
   -11, 0, 10, -9, -36, -70, -10, 14,
   -43, -31, -11, -8, -2, -46, -2, -19,
   -10, 54, -50, -24, 6, 23, -46, -47,
   -5, -70, 0, -12, -19, 8, -7, -32,
   -28, 0, -5, 27, 29, 46, 36, -27,
   22, 19, -18, 3, -31, 19, -18, 2,
   2, -21, 62, 67, -33, 0, -37, -39,
   -22, -17, 9, -38, 30, -18, 2, -2,
   -20, 30, 28, -2, 21, -25, 5, -46,
   -7, -9, -5, 10, 47, 41, 19, -16,
   -74, -78, 9, 0, -47, 51, -21, 31,
   -107, -61, 37, -41, 13, 20, 30, -35,
   -33, 30, -8, 56, 15, -9, 38, -5,
   23, 13, 57, -67, -26, -39, -19, -21,
   43, 1, 17, -1, 2, -74, 10, 27,
   26, 27, -26, 46, 21, -74, -37, 13,
   34, -15, 28, -28, 46, 24, 4, 10,
   30, 32, 46, -71, 23, -12, 3, -9,
   17, 24, -53, 22, 1, 16, 27, 45,
   -49, -39, 33, 6, 30, -30, -17, 26,
   26, -7, -25, -36, -17, -65, 12, 32,
   -48, -37, -9, 0, 1, -66, -6, 39,
   18, -28, -34, 22, -14, 35, 28, 16,
   -17, -5, 45, -38, 19, 18, 71, -4,
   -1, 18, -7, 3, 5, -59, -17, 23,
   18, 7, 17, 19, 32, -17, 33, -25,
   -6, 15, 38, -15, -5, -12, 2, -55,
   1, -16, 26, 11, -3, -36, 36, 1,
   -32, -50, -16, 50, 33, 64, 24, -43,
   -80, 61, -6, -10, -52, -39, 37, -28,
   -38, -55, 51, -128, -15, -70, 7, 31,
   116, -25, 44, 18, -22, -27, 19, -14,
   -40, -7, 40, -20, 65, -49, -18, 16,
   87, 15, -8, 46, -19, 21, -21, 61,
   11, 7, -29, 28, -76, -9, 25, 19,
   3, -11, 49, -81, 23, 42, -9, -40,
   26, 120, 56, -9, 35, 36, -11, -34,
   35, 23, -9, 92, -26, 59, 61, 13,
   -59, -33, -5, -68, -30, 73, -59, -2,
   -45, -18, -4, 23, 60, 61, 52, 83,
   17, -15, -38, -15, 28, -47, -13, 45,
   23, 47, -44, 9, 7, 6, 65, 17,
   33, -4, -40, 2, -6, 49, -8, -19,
   -9, 12, -31, -17, 17, -17, -5, -30,
   -71, -24, -37, -16, -7, 21, -25, 3,
   -69, 21, -35, -34, 49, -53, 50, 69,
   -18, -16, -14, -14, -2, -35, -87, -23,
   47, -26, -27, 60, 127, 14, -22, 23,
   11, -7, -34, 52, 24, -25, 1, -103,
   -105, 41, -3, -13, -13, 3, -30, -42,
   54, -3, -125, -10, -55, -39, 75, -29,
   15, 9, -49, -64, -14, -78, 58, 11,
   13, 20, 64, -77, -12, -55, -47, 10,
   -16, -27, -23, 0, 13, -10, 29, 23,
   17, 4, -60, -42, -38, -10, -15, -82,
   28, -37, 62, -108, 80, -32, -23, 3,
   -37, 6, -1, 18, -28, -20, -16, -37,
   14, -33, 25, -63, 8, -44, -20, -51,
   53, -46, 70, -12, 9, 54, -29, 2,
   -65, -3, -7, -4, 22, -1, -66, -21,
   -33, 17, -5, -11, 23, -68, 31, 48,
   -4, -44, -11, -50, -10, -1, 5, 29,
   -29, 7, -47, -30, -26, 2, -51, -24,
   16, -19, 2, 45, 13, -28, 25, -3,
   -34, -19, -30, 38, -50, 4, -19, -11,
   18, -4, 24, -68, -80, 31, 46, -80,
   -80, -29, -26, -14, -15, 87, -32, 7,
   57, 56, -19, 100, 85, 54, 10, -52,
   -15, -21, -52, 56, 61, -36, -16, -41,
   -54, 81, -87, 43, -20, 14, -47, 1,
   0, 29, 22, 15, -36, 21, -33, 109,
   36, 52, 50, 25, -7, 10, -3, 42,
   -1, 34, -37, -24, 12, -3, -6, -12,
   0, -59, -12, -11, 41, 9, 67, 35,
   68, -71, 28, -25, -20, -55, 53, 14,
   -7, 19, -36, -23, 23, -24, 48, 27,
   -15, 49, 40, -21, 15, 21, -21, -2,
   37, -14, 11, 10, 3, -33, 13, -20,
   -5, 19, 27, 0, 26, -4, 12, -14,
   17, -53, 23, -45, 15, 20, 21, -29,
   20, 23, 26, -74, -20, 11, -2, 33,
   -7, -34, -12, -15, -9, -14, -1, -32,
   22, 12, 52, 53, 42, 26, -13, -3,
   -7, -5, -64, -34, -54, -55, 61, -43,
   42, 41, 3, 53, -6, -3, -23, -42,
   33, 16, -51, 49, 66, 12, 24, -64,
   -65, 65, 40, 61, -5, -52, -46, 17,
   16, 23, 52, -15, 10, 33, -73, 83,
   0, -9, -47, -35, 55, 28, -1, 27,
   15, 8, 74, 7, 17, -30, 76, -6,
   -42, -16, -5, 28, 3, 2, -24, 6,
   32, 28, 2, 43, -2, 28, 1, -2,
   -42, 19, 26, -36, -51, -42, -22, 15,
   -22, -11, -12, 0, -34, -9, 18, -2,
   -41, -16, -31, -19, 19, 42, 18, -32,
   -16, 14, -23, -55, -15, -7, 16, -36,
   -31, 38, 1, 45, -33, -20, 37, -19,
   -21, -9, 16, 10, 46, -2, 2, 8,
   16, -33, -24, 12, -58, 61, 44, -3,
   -45, -16, -28, 22, -42, 0, 3, -36,
   23, 22, -40, -33, -18, -26, -4, 17,
   -28, 17, -6, 22, -65, 3, 27, -29,
   73, -22, -12, -26, -17, 36, 21, -12,
   19, -5, -24, 12, 28, -48, 4, 8,
   61, -16, 32, -56, -26, -20, -6, 40,
   6, -27, 0, -20, 52, 17, -34, -9,
   23, 53, -2, 4, -7, 7, 23, -25,
   31, -21, -23, 25, 28, -13, 5, -14,
   -60, 48, -34, 28, -11, 20, -6, -24,
   -21, 32, -39, 30, -16, -24, 17, -25,
   1, 23, -5, 13, -27, -18, -5, -8,
   3, -46, -11, 30, -19, -9, -7, 18,
   -25, 17, 9, -18, 5, -2, 42, -16,
   -2, 33, -15, 35, -27, -16, 30, -35,
   -22, 45, 27, -20, -35, 12, -24, -16,
   -37, 38, -15, 10, 12, -32, 22, 27,
   0, -13, -33, 16, 57, -1, 26, -15,
   -1, 20, 20, 10, -32, 4, -31, -30,
   -8, 41, 47, 42, -16, 13, 10, 22,
   34, 14, 18, -19, 23, -14, 37, 7,
   13, -11, -2, -5, 38, -15, 17, 46,
   19, -61, 8, -37, -4, 41, 7, 21,
   -45, -38, 7, 80, -1, -4, -1, 39,
   32, 26, -38, -11, 7, 50, 16, -6,
   -8, 21, -6, 5, 16, -10, -51, -24,
   -33, 19, -16, -8, 6, 33, -44, 42,
   -25, 46, -34, -16, 6, -1, -16, 10,
   5, -38, 42, -50, -62, -8, 27, -13,
   28, 11, -12, 8, -7, 18, 36, 35,
   6, -5, 29, 84, -26, 22, -35, -25,
   27, -32, -11, -31, 9, -1, -1, -12,
   -30, -19, 20, -26, -33, -14, -17, -49,
   31, 15, 30, 34, -27, -6, 12, 7,
   43, 22, -32, 1, 16, 18, 41, 22,
   -31, -6, 6, -28, 30, 15, -9, 5,
   -29, 0, 7, 8, 19, 38, 33, 50,
   -16, 55, 7, -55, 15, 30, -12, -32,
   -19, -11, -6, 77, -1, -21, -63, 67,
   -19, -29, 7, -3, -56, 47, 61, -70,
   -41, -24, 33, 7, -5, 11, -44, 1,
   26, -4, 116, 20, -57, 29, 29, -6,
   -83, -16, 4, -83, 10, -36, -19, -8,
   -9, 32, 38, -7, -14, 14, -47, -1,
   -18, -22, -38, 12, -7, 6, -24, 29,
   -55, -11, 20, 23, 50, 5, 2, -20,
   -1, -18, 35, -18, -19, -17, -7, -24,
   58, -17, -19, 43, -21, 39, -21, -17,
   -12, 7, -22, -13, -25, -51, 47, 14,
   51, -31, -32, 5, -24, -15, -5, 31,
   -2, -13, -37, 36, -33, -14, -36, -34,
   8, 12, -14, -33, 8, 6, 23, -26,
   27, -17, 22, -35, 35, -13, 17, 9,
   -25, 31, 19, -15, 33, 28, -22, 36,
   57, 24, -14, 53, 37, 1, -9, -36,
   37, -6, -5, -18, -50, 13, 21, 33,
   -15, 32, -28, -43, -8, -22, 30, -43,
   16, 3, 1, -4, 38, -48, -24, -14,
   -11, 14, -9, 49, -15, -14, -72, -68,
   15, 23, -37, 3, 76, 13, -25, 16,
   -4, 27, 1, 4, 32, -6, 3, 25,
   1, 10, -15, 18, -2, 39, 9, 62,
   26, -36, 2, 11, 12, -32, 23, 0,
   -7, -30, 18, -79, 8, -37, -13, 7,
   -35, 23, -23, -37, 2, 11, -14, 30,
   5, 11, -16, -5, 12, -37, -3, -1,
   37, 38, 25, -35, 21, -36, -30, -13,
   -41, 13, 18, 0, 20, 26, -38, -19,
   0, -52, 31, 14, 36, 15, 46, 20,
   -12, -34, 39, 8, 40, 4, 17, -25,
   -32, 20, -15, 18, 3, 31, -8, -16,
   2, -16, -15, 32, -24, -51, 33, 17,
   5, 25, 45, -20, 39, -8, -3, 6,
   127, 50, 32, 49, -87, 18, -13, 28,
   17, -4, 41, -35, 25, 18, 18, -75,
   -33, 127, -10, -27, 35, -26, -35, 15,
   127, 15, -20, 89, 59, 22, -13, 86,
   39, 9, -43, -47, 24, 68, -23, 35,
   6, 23, 70, 20, -13, 46, -39, 45,
   23, -35, -23, -14, -9, -8, -87, 8,
   1, 68, -30, -25, 24, -23, 19, 38,
   6, -29, 12, 4, -2, -47, 32, -38,
   -12, 36, -15, 18, 32, -30, -55, -11,
   -42, -7, 42, -17, -12, 49, -49, 1,
   85, 22, 14, 52, -3, -64, -83, 39,
   -14, -13, 32, -15, -36, 11, -14, -11,
   -31, -17, 8, 18, -22, 24, -2, -15,
   -10, -30, 21, 28, 13, 0, 35, -40,
   47, -22, 13, 4, 43, 18, 13, 45,
   -37, 7, -24, 39, -26, -69, 29, -8,
   39, 6, -28, -10, 4, -4, -8, -45,
   13, -6, 11, 7, 31, 4, 41, -26,
   -10, -18, -30, 11, -16, 11, 32, -9,
   14, 6, -7, 44, -25, 15, -6, 19,
   -29, 1, -71, -17, -23, 0, -31, -52,
   66, 40, 14, -17, 25, -33, 0, 44,
   5, 33, -32, -39, 17, -36, 22, -9,
   19, 33, -48, 24, -6, 34, -20, -2,
   36, -1, 28, 22, -28, -59, 47, -40,
   -82, -27, -23, -62, -15, -20, -7, 9,
   -3, -18, -17, 26, 14, -41, -21, -14,
   12, 14, 22, 32, -24, -84, 30, 5,
   15, 24, -1, 1, -8, 22, -17, 16,
   34, 2, -20, -56, -52, -26, -17, -12,
   -17, -18, -18, -4, -35, -18, -7, 13,
   -18, 1, 16, -35, -13, 25, -24, -36,
   -1, -23, 2, 3, -22, -27, 0, 25,
   -11, 20, -15, -15, 24, 35, -12, 7,
   -2, 11, 39, -24, 24, -20, 10, -52,
   24, -19, -13, -36, 8, 26, 31, -25,
   -25, -19, -4, -54, -31, 58, 7, -43,
   -11, 20, 3, -37, -17, -31, 12, -28,
   -11, 26, 17, 4, -6, -10, -26, 45,
   -14, 26, 30, -7, 3, -21, -20, 14,
   18, -2, -16, 35, -32, 6, 31, 5,
   6, 34, -47, -40, 33, 24, 34, 39,
   -1, 3, -31, -53, -4, -40, 0, 41,
   -10, -46, 5, -10, 12, -2, 2, -22,
   -26, -27, 16, -10, -4, 14, -12, 24,
   0, -24, -6, 7, -23, -11, -44, -5,
   23, -1, 24, -34, 23, -5, 22, 8,
   -17, 53, 7, -31, 40, 5, 0, -18,
   8, 9, 2, -3, 4, 2, 41, -18,
   38, 14, 3, -10, 16, -8, -22, 15,
   -20, -49, 36, -11, 68, 31, 8, 0,
   -13, 9, -21, 35, 9, -41, 37, 2,
   -15, -1, 2, -32, -6, -28, 1, -2,
   81, -22, -8, -32, 47, -73, 37, 42,
   8, 56, -6, -8, -59, 4, 5, -14,
   23, -23, -12, -30, -43, -23, 17, 23,
   -12, 14, -28, 31, -6, -25, -22, 6,
   -9, -45, 13, -35, -26, 5, -2, -20,
   12, -26, 10, -10, -6, -10, -30, 30,
   -43, 20, 48, -31, -53, -48, 25, -37,
   5, 11, -31, -14, -13, 1, -25, -1,
   -12, 9, -8, 22, 9, 49, 31, -51,
   11, -1, 12, 3, 7, -42, 51, -4,
   31, 15, -34, 16, 17, 8, 8, 34,
   -26, -3, 43, 57, 26, 23, 1, -24,
   -17, -12, 2, 0, 5, -8, 34, -8,
   1, -3, -57, -8, 12, 17, -38, -25,
   5, -31, 24, -11, -11, 14, -9, -45,
   -29, 7, 1, 11, 3, -11, 4, -7,
   -24, -10, 50, 20, -3, 16, 2, -9,
   -11, -8, -9, 2, 11, 17, -9, -29,
   -15, 4, -24, 4, -17, 8, -14, -24,
   43, -72, -15, 38, 24, 17, 27, -13,
   -43, -6, 9, -28, -15, 1, -5, -10,
   80, -33, 15, 14, -63, 3, -2, 3,
   -53, -28, -24, 14, 28, -14, 23, 14,
   -9, 0, 6, 26, -17, -23, 9, -7,
   -31, -28, 11, 29, -41, -30, -24, -19,
   -10, 4, 12, -22, 40, 22, 36, 2,
   -3, -19, -3, -50, 13, 13, 12, -13,
   -10, 44, -21, 9, 14, 40, 2, 52,
   13, -5, -43, 28, -46, 30, -1, -32,
   -5, 5, 14, -17, -18, -13, 20, 11,
   -17, -25, -15, 15, 28, -4, -21, -2,
   61, 29, 9, 0, 18, -15, 42, 2,
   -8, -21, 2, -2, 0, 31, -12, 8,
   -2, -26, -8, -3, -25, 7, 47, 26,
   14, 6, -9, -5, 33, 33, -17, -32,
   7, -11, -9, 25, 32, -13, -5, 36,
   -71, 36, -15, -71, -17, 40, 27, 42,
   -40, -55, -14, 70, -13, -38, -39, -14,
   -119, -21, -24, -1, 3, 62, -4, -88,
   -10, 40, -51, 49, -28, 17, 13, -61,
   68, -9, -15, 71, -6, 6, 33, -54,
   -45, -9, -23, -3, -41, -3, -22, 55,
   44, -19, 56, -63, 10, -6, 31, 4,
   -33, -6, -62, 13, -44, -17, -21, 34,
   -64, 24, 56, 5, 52, 30, -14, -1,
   36, -18, -17, 45, -48, -8, 46, 11,
   28, -11, -11, -13, 59, 48, -2, -36,
   -8, -2, 33, -14, -38, -58, 60, -66,
   8, 3, 3, 13, 8, 17, 11, 1,
   -16, 24, 23, -9, -24, 5, -35, 3,
   27, 30, 39, 0, -39, -63, 25, -15,
   -13, -7, -11, -12, -3, -6, 47, -49,
   24, 24, -30, -7, 0, 12, 41, 16,
   -11, 24, 17, 59, 34, 22, 19, 9,
   -8, -35, -25, 2, 11, -5, -19, -8,
   10, 29, -5, 15, -33, -66, 36, -27,
   -9, -21, -22, 16, -20, -47, -20, 45,
   -2, -6, 7, 26, -64, -18, 10, 3,
   -6, -16, -9, -17, 37, -61, -26, 50,
   -80, -50, 83, -21, -66, -7, 22, -9,
   -5, -10, -10, 37, -13, -50, 8, 6,
   -35, -8, -23, -30, 41, 8, 45, -10,
   14, -31, 45, 36, -14, 21, -24, 64,
   9, 21, -25, -2, 8, 13, 54, -23,
   13, 14, 2, 22, 28, 48, 5, -21,
   -34, 22, -14, 6, 23, -1, -5, 31,
   -46, -29, -40, -32, -17, 15, 22, -18,
   32, 23, -5, -15, 8, -15, -10, -61,
   -21, -8, -25, -22, 24, 38, 16, -25,
   -39, 44, -7, -10, 26, -2, -28, -12,
   35, -16, 12, 11, -23, -25, -11, 38,
   -9, -7, -17, -14, 17, 26, -51, 2,
   -34, 75, 11, -6, -7, -18, -12, 8,
   14, -32, 17, 23, 22, -24, 13, 10,
   -7, 0, 39, 36, 32, 12, 48, -21,
   -9, -38, -16, 2, 21, -36, -15, -10,
   -14, 28, -22, 51, 9, -48, -3, 56,
   -39, 13, -37, -12, 18, -36, 9, -39,
   49, 33, 9, -33, -11, 39, -10, -9,
   -15, 16, 49, 41, -43, -4, 4, -40,
   -15, 3, -27, 24, -2, -8, -15, 17,
   32, -12, 26, -16, 8, -38, 12, 18,
   14, 4, 7, -19, -15, 7, -21, 36,
   -23, 30, -31, -2, -37, -22, 3, 30,
   -35, 32, -24, 1, -34, 40, -8, -5,
   3, -2, -26, -26, -9, -8, -18, 31,
   -12, 35, 19, -10, 39, -47, -15, 22,
   8, 6, -28, -42, -10, -23, 10, 16,
   -14, -10, -4, 34, 27, -14, 23, 17,
   45, 31, -28, -26, 11, -21, -15, -11,
   17, -58, 11, -34, 2, -41, 0, -17,
   1, 8, 14, 1, 11, 2, 18, -14,
   29, 37, 9, 6, 1, -11, -7, 21,
   -7, -15, 24, 15, -2, 31, -22, -2,
   -43, -39, 48, 3, 15, -11, -4, -15,
   56, -51, 23, -38, -40, 17, 11, 24,
   -65, 20, -12, -23, 0, 5, 12, 27,
   -21, 17, 25, 0, -11, 10, 24, 23,
   -14, -18, -35, -5, 20, 2, 39, -36,
   -2, 45, -51, -27, -27, -14, -21, -20,
   -1, -40, 18, -16, -20, -32, 4, 7,
   -1, 36, 26, -30, 42, 2, 15, 25,
   -14, -19, -30, 30, 28, 7, -31, 4,
   -1, 19, -19, -16, 17, -4, -3, -16,
   10, -32, -6, 19, -12, -8, 30, -4,
   34, -27, -12, 22, 41, 26, 40, -5,
   29, -1, 11, -35, -7, -40, -16, 23,
   25, -9, -13, -25, -4, -13, 2, -19,
   -35, 17, 42, 1, -31, 12, 29, -51,
   -12, -43, 51, 43, -44, -7, -50, -22,
   -6, 46, -2, -20, 51, 27, 4, 16,
   -53, 31, -30, 16, 22, 8, 40, -63,
   40, -9, 16, 48, 67, 0, -29, 16,
   43, 14, 16, 4, 21, 16, 1, -4,
   -12, 12, 71, -29, -8, 31, -24, -39,
   21, 41, 1, 33, -11, -37, -24, -11,
   -28, -29, 3, 1, 8, 66, 56, -12,
   -31, -51, 76, 24, 10, 39, 22, -15,
   22, 0, -9, -18, -4, 12, 9, 58,
   -54, 0, 14, -4, 21, -37, -11, 22,
   -8, -13, -8, 46, 19, 19, -36, -21,
   3, 15, 64, 39, -27, -16, -56, -66,
   4, -1, 3, -17, 23, -10, -5, 7,
   -43, 30, -37, 25, 6, 27, -12, 53,
   -8, 6, -19, 7, -28, -43, 16, -20,
   -24, -25, 16, -14, -9, 9, 46, 48,
   -23, -23, 18, -3, 27, 25, 22, 17,
   -29, 13, 12, 64, 7, -21, -24, 41,
   15, -49, -11, 23, -31, 1, 36, -14,
   14, -7, 9, 1, -8, -27, -27, -12,
   -24, -20, 10, 17, 13, -6, -35, -29,
   -3, 23, 53, 38, 2, -29, -17, 34,
   -2, -31, 64, 17, -20, -3, -34, 6,
   -16, 53, 12, -16, -55, -27, -40, 12,
   -7, 13, -6, 68, 38, 19, 25, -4,
   43, 6, 19, 9, -31, 12, 20, -5,
   6, -16, -13, 55, 40, 0, 56, 13,
   25, -7, 30, 52, 24, 8, 26, 19,
   -46, -31, 14, 33, 28, 51, 35, -4,
   38, 10, 7, -30, 20, -21, 7, 17,
   7, 1, 29, -28, -7, -2, -22, 1,
   6, 12, 24, 2, 24, -43, 30, 32,
   33, 45, -26, 8, 39, -19, 30, -9,
   -15, -7, -45, -6, 22, -10, 45, -41,
   -57, -8, -11, 24, -37, -14, -25, -39,
   -59, -47, -13, -4, 16, 77, -21, -12,
   30, 6, -15, -27, -42, 44, 19, -15,
   -19, 56, -11, -36, -1, -39, 25, -10,
   10, -20, 27, -49, 17, 59, -40, 15,
   19, -5, 7, 7, -37, 30, -26, 16,
   14, 9, 36, 14, -8, 12, -17, -15,
   13, 43, -60, -67, 7, -14, -31, 23,
   -71, 36, 10, 23, -13, 45, -10, -6,
   -7, 28, 59, 18, -4, 10, 2, 10,
   -14, 52, 62, 20, -20, -3, -4, 10,
   -48, -31, -5, -9, -26, -35, -21, 7,
   21, 12, 20, 50, -13, 3, 46, -8,
   19, 16, 6, -26, 21, -21, -6, -52,
   41, 21, 28, 25, -12, -26, 16, -6,
   -8, -15, 16, 35, 29, 21, 36, -28,
   25, 22, -17, -7, 0, 5, -21, -24,
   -41, 10, 11, -10, 17, 13, 32, 15,
   12, 53, 29, -100, -28, -53, -3, 13,
   -64, -16, -42, 81, 3, 45, -17, -43,
   -52, -27, 3, 45, -14, 28, -31, -56,
   46, -50, 51, 74, 59, 50, -66, 34,
   12, -22, 36, -34, 20, 40, 58, -115,
   -38, 39, -64, -23, 30, -47, 30, -18,
   -18, 20, -13, -14, 19, 17, -62, -30,
   46, 45, -19, 4, -36, -12, -2, 21,
   -18, 28, -50, -45, 54, -57, -7, -83,
   55, -8, 2, -31, 0, -1, 36, 25,
   64, -48, -6, 8, 4, 20, -15, 4,
   -29, 13, 36, 36, -35, -4, 42, -49,
   -15, 6, -21, 52, -9, 23, -3, 36,
   -19, -22, -37, 5, 7, 13, -35, -23,
   -21, 20, 21, -11, -11, 6, -1, 12,
   -16, 0, -2, -34, -12, -22, 49, -32,
   -8, 1, -23, -21, 35, 29, 10, 4,
   18, 7, 2, -24, -8, -47, -1, -43,
   -26, 119, 7, 43, 58, -122, -118, -28,
   39, -79, 21, 49, -56, 25, -1, -10,
   -59, 26, 5, 17, 60, 31, -56, 54,
   95, 21, -14, -23, -36, -85, 10, 66,
   -19, -80, -42, -9, -16, 32, 18, 15,
   33, 82, 40, -6, 34, 38, 2, 38,
   26, -55, 1, -46, 20, 5, 17, -10,
   -11, -29, 35, -12, 58, 29, 24, 101,
   -12, -17, -35, 100, 16, 14, 21, -60,
   -12, -29, 17, 22, 1, -57, -45, -35,
   -41, 23, -40, -20, -35, -20, 1, -16,
   42, -62, 30, 21, -15, -36, -6, 51,
   1, 30, 24, -11, -51, 19, 31, -12,
   -22, -22, -72, 13, -5, -8, -15, -37,
   -51, -9, -18, 17, 70, -10, 14, -34,
   4, 18, 9, -37, 8, -23, 43, 58,
   18, -21, -15, 38, -34, -26, 66, 10,
   1, -19, -13, 5, -2, 51, -41, 32,
   -17, -22, -16, -34, -51, -12, -44, 42,
   -29, 27, -57, -32, 24, -36, -38, -13,
   -27, -67, -56, -29, 0, 17, 6, 18,
   -12, 39, -94, 17, -7, -54, -91, 14,
   33, 29, 82, 4, -56, -25, 39, 16,
   30, -44, 11, 1, -30, -43, 25, 3,
   -40, 57, 48, -27, -39, -9, 22, 5,
   -9, -43, -12, 15, 50, -14, 0, -23,
   -27, -6, -8, -29, -53, -10, 52, -9,
   -6, -29, 15, -5, -16, -33, 21, -3,
   -32, 7, -17, 11, -43, -44, -11, -1,
   16, -21, 36, -87, -11, -20, 33, 27,
   -3, 3, -50, -33, 5, 2, -3, 40,
   -22, 19, 52, -36, 18, 12, 23, 8,
   14, 53, -10, -39, 23, -3, 48, 7,
   17, 39, 23, -7, -36, 29, 47, 9,
   18, 3, -4, 34, 35, 21, -26, 29,
   34, -42, 7, -35, 33, -27, -11, -25,
   -22, -18, 5, -3, -12, -62, -16, -26,
   -14, -63, -23, -27, -22, -16, -25, -78,
   43, -41, -28, 14, -65, 9, 5, -20,
   -2, 26, -13, -32, -9, -5, -5, -24,
   -41, 24, 2, -46, 16, -8, -9, 25,
   23, 33, -14, 6, -27, -43, -20, -60,
   -39, 17, -60, -10, 14, -6, 8, 21,
   -11, -36, -18, -46, 28, -4, 59, 8,
   41, -22, -25, -14, 12, -8, 52, -17,
   -14, 10, -45, 8, 4, -16, -33, -8,
   24, 3, -10, -12, 11, -26, -9, 55,
   21, 17, -42, -44, 29, 38, 8, 19,
   34, -12, -36, -1, 42, 51, -18, 38,
   24, 13, 14, 21, 14, -25, 23, 37,
   38, 7, -14, -13, 0, 10, -34, 23,
   7, 36, 45, 39, -36, 63, -4, -25,
   44, 1, 30, 5, -14, -31, -22, 31,
   32, 5, -31, 0, -9, -2, -16, 52,
   -8, 45, 52, 25, -19, -4, 21, 37,
   67, 4, -38, -23, -1, -55, -1, 42,
   20, -39, 4, 41, 12, -19, 20, 2,
   -67, -19, 19, -55, 11, 7, 27, -17,
   -15, 32, 50, 49, 2, 17, 74, -24,
   -23, 27, 29, 19, 47, -13, -13, 13,
   25, -35, 10, -22, 8, -25, -45, -12,
   -12, 2, -31, -24, 5, -35, 6, 2,
   12, 6, -22, 3, 6, 49, -43, -40,
   -31, -21, 35, -28, 12, -21, -21, 3,
   25, 12, -5, 3, 51, 21, 49, -6,
   -13, -10, 49, 37, 20, -2, -16, 57,
   13, 35, 2, 40, -3, 23, 11, -32,
   9, 6, 4, -24, -6, -28, 25, 44,
   -15, 27, -33, -11, -25, -31, -3, -6,
   -48, 1, -9, 46, -10, -35, -32, -3,
   1, 9, -16, 40, -5, 30, -9, -18,
   18, 13, -15, 14, 11, -28, 31, -8,
   -52, 78, 58, 8, 28, -10, 62, -11,
   -5, 25, -16, -21, 17, 6, -22, -15,
   31, -11, 26, -12, -33, -19, -14, 98,
   -20, -15, -30, 9, 65, -3, -84, -36,
   -3, -20, -5, 40, 53, -28, 6, 47,
   33, 15, 69, -42, 18, -27, -68, -27,
   4, -12, -3, 33, 1, -6, 11, 26,
   63, 17, -8, 10, 29, 2, 10, -45,
   0, -18, 24, -23, -15, -7, -25, 12,
   -12, -20, -51, 31, 29, 9, 35, 34,
   6, 1, 51, 33, -17, -43, -20, 50,
   16, 62, -49, -25, -45, -17, -5, -1,
   10, 39, 13, 9, -32, 46, -2, 11,
   11, -32, 33, -4, -33, -36, -11, -21,
   23, -39, 5, -37, 7, 39, 36, -7,
   -10, 18, -7, 13, -27, -6, -10, -12,
   7, -18, -16, -24, 16, 3, -13, 13,
   -20, 1, 2, 7, -22, -8, 41, -46,
   -25, -2, -9, -31, 23, 5, -10, 36,
   -24, 26, -55, 66, 2, 15, 53, 6,
   24, -14, -5, 16, -8, 25, 44, -10,
   -6, -57, -27, 41, -1, 3, 6, -51,
   13, 37, 7, 35, 32, -32, 18, -19,
   -1, 52, 23, -60, -3, -35, 44, -50,
   10, 22, 5, 29, 4, 0, -13, -12,
   26, -17, -28, -6, -28, 15, 17, 52,
   -1, 55, -39, 21, 4, -10, -17, -40,
   -14, -38, 75, 32, -66, 20, 19, 18,
   36, 48, 9, 3, 11, 26, 11, -3,
   13, 35, -31, 45, 20, -37, 3, -24,
   28, 22, -16, -26, 35, -14, 11, -28,
   16, 20, 23, 15, 11, -44, -6, 28,
   20, 28, -29, -9, -1, 25, 20, 10,
   -6, 10, 1, 8, -15, -10, -7, -26,
   30, -13, 12, -1, 21, 29, -18, 17,
   -15, -21, 15, 39, -30, 4, -32, -30,
   -12, -18, -17, -34, -14, 41, 3, 39,
   -14, 19, 22, 31, 20, 11, 31, -5,
   7, -16, -16, 20, 33, 34, -24, 25,
   -11, -10, 24, -17, -4, 0, 5, -20,
   19, 41, -37, 0, 6, 7, -15, -38,
   8, 2, 8, -5, 30, -41, 13, 0,
   -34, 6, 7, 6, -28, -26, -11, -27,
   21, 19, 2, 26, -11, -4, 22, 1,
   19, 27, 37, -19, -15, 1, -23, -24,
   8, 14, 4, 0, 33, -38, 28, 18,
   -22, -21, -13, 4, 14, -34, -14, -10,
   15, -27, -10, 0, -25, 7, 24, -36,
   2, -15, 30, 33, 18, -33, -23, 18,
   -10, -13, 32, -12, 7, 6, -19, 28,
   17, -19, -6, -5, 5, 18, -2, -7,
   -27, -9, 14, 23, 2, -18, -13, -8,
   8, 12, 35, -18, 19, -27, -10, 8,
   11, 26, -2, -10, 13, -4, -2, 19,
   -12, -24, 19, -1, 66, -66, 40, -21,
   -26, 33, -29, 5, 58, -15, 42, 26,
   11, -7, 29, 29, 5, 22, 13, 5,
   -31, -14, -43, -40, -2, 19, -20, 20,
   -33, 28, -33, 10, -4, 28, -8, -19,
   -30, -1, -4, -6, 14, -32, -53, -23,
   19, -54, 44, 38, -41, 23, -21, 50,
   -6, -42, 53, -14, 10, -59, -14, 6,
   -22, 38, 10, -6, 21, -4, -44, 31,
   19, -13, -30, 11, 16, -15, -31, 7,
   11, -17, 41, 30, 4, -46, -47, 30,
   -12, 39, -6, -1, 0, -23, 12, -19,
   48, 5, 43, 20, -45, 36, -32, -31,
   28, 17, -23, -36, 15, 31, 9, -25,
   8, -19, 23, -2, -16, 14, 6, -9,
   -1, -3, 8, 22, -42, -9, 3, -35,
   -38, 35, -17, -39, 20, -23, 24, -31,
   -13, -10, -24, -3, 29, 8, 3, -54,
   2, 26, -15, -7, 0, 59, -12, -58,
   6, 6, -10, -6, 85, 2, -50, -8,
   -11, 31, -29, -14, -3, 8, -26, -25,
   -37, -36, -68, 16, 17, 1, -14, -27,
   3, -40, 25, -6, -14, 16, -40, -42,
   -16, -12, 17, 32, -11, -11, 21, 9,
   -17, -38, -29, 20, -12, 31, 39, -26,
   2, -43, 13, -40, 7, 16, 18, 0,
   -26, 22, -39, -30, -59, -20, 68, -13,
   21, 11, -67, -25, -39, 4, -62, 19,
   4, -47, -6, -25, -28, -14, -10, 20,
   34, -35, 5, 4, 49, 32, -12, -1,
   -1, -12, 19, 0, 13, -3, 2, 65,
   11, 52, -5, 8, -18, -29, -33, 26,
   35, -47, -4, 52, -39, -29, -44, -2,
   -25, -25, 18, 7, 0, 16, -11, 35,
   52, -47, -34, -36, 33, -62, 4, -32,
   17, -63, -15, -56, 22, 30, -11, 27,
   -65, -43, 3, 8, -120, 5, 16, 2,
   -6, -2, 13, 7, -29, -6, 37, 41,
   -7, 9, -33, -40, -33, 49, 21, -19,
   -7, 42, 18, 19, -15, 19, 22, -59,
   -42, 37, 8, 22, -14, 39, 24, -14,
   -15, 7, 11, 38, -13, 40, 6, -4,
   -15, 11, 48, 20, 35, -3, -13, -23,
   8, 83, 12, 11, -30, -59, 13, 24,
   7, 20, -1, -35, 35, 6, 11, 41,
   -42, -33, 3, 43, 34, 22, -34, -29,
   10, 4, 31, -29, 15, 5, -1, 3,
   -5, -27, 17, -27, -22, 14, 23, -10,
   -45, -11, -11, 26, 38, 12, -31, -53,
   3, 10, -19, 45, -6, 25, -15, 25,
   29, 10, -5, 43, 25, -30, -14, 0,
   -15, -30, -6, -5, 11, 17, 17, 0,
   48, -35, 10, -31, 20, -11, 3, -26,
   5, 8, 7, -1, -13, 42, -21, -2,
   -5, 23, 6, 1, -18, 18, -40, 21,
   -42, -20, -11, 0, -2, -55, 90, -35,
   72, 12, 65, -48, -24, -2, 14, 13,
   12, 36, -34, 51, -36, -10, 33, 52,
   -88, 43, -1, 102, -31, 15, -12, 28,
   11, 10, 38, 59, -23, -17, -33, -13,
   3, -35, -42, 24, -47, -24, -8, -98,
   29, 0, -18, 32, 26, -27, -10, -68,
   -46, -17, -23, 69, -66, -26, -84, -7,
   -16, 1, 48, 31, -52, -31, -77, 27,
   -68, 69, -56, -18, -21, -32, -1, 54,
   67, 26, -50, 1, 58, -15, -10, 23,
   13, -41, -57, -26, 24, -27, -4, -13,
   31, 25, -1, 25, 33, 19, -29, -50,
   13, 53, 18, 6, 23, 19, -8, 17,
   31, 38, 43, 42, 13, -37, 4, -27,
   -2, 19, -7, -17, 39, 11, -44, 19,
   -12, 15, -53, 2, -30, 16, -7, 1,
   -27, 5, 23, 49, 33, -9, 31, -88,
   -38, -18, -19, 48, 3, 11, -18, 41,
   13, 62, 43, -15, -23, -48, -11, 35,
   12, 25, -6, 13, 29, 12, -42, -67,
   4, -11, -43, -74, -22, -79, -4, -63,
   51, -15, -3, -14, 52, 14, 15, -6,
   -63, -34, -21, 24, -35, 9, 52, 0,
   -52, 2, 42, 37, 2, -29, 38, -65,
   30, 53, -35, 4, 5, -34, 59, 29,
   -13, 84, -41, -12, 24, 15, -7, 29,
   -41, 85, 3, -34, -47, -22, -3, 4,
   -22, 18, -13, -41, 93, 23, -2, -51,
   0, 21, 3, -33, -5, 50, 33, 50,
   20, 0, -13, 2, 8, 38, 33, 61,
   31, 24, -56, -4, 28, -8, -41, 7,
   -8, -40, 39, 50, 29, 57, -18, 43,
   18, 20, -7, -57, 18, 4, -4, -1,
   28, -46, -11, -1, -4, 36, 38, -46,
   -26, 22, -78, -24, 52, -85, -37, 12,
   -125, -17, -5, -93, 70, -124, 100, 47,
   -127, -49, -92, -110, -76, -34, -22, 40,
   52, 13, -21, -57, 1, 4, -96, 10,
   16, 70, -13, 45, 3, -70, -99, 37,
   -12, -95, -47, 59, 42, 29, -9, 77,
   80, -20, -17, 5, 23, 55, 23, -43,
   32, 89, -48, 15, -123, -63, -126, 36,
   -85, 19, -45, 71, 27, 41, 37, 124,
   15, -85, 4, 32, -41, -18, 66, -128,
   -66, -26, -49, -103, -10, -109, -76, 25,
   124, -32, 89, -42, -83, -58, 101, 61,
   52, -76, 18, -38, -32, -33, -43, 23,
   -20, -99, 9, 24, -43, 37, 90, -28,
   -128, 94, -60, 30, -5, 7, -11, 117,
   -80, 24, -53, 95, 53, -10, -34, -128,
   -5, -22, -68, -95, -52, 15, 10, -60,
   114, -16, 124, 30, -15, -14, 79, 33,
   -10, -54, 23, 36, 126, -54, 9, -1,
   95, -36, -37, -104, 50, -88, -83, -127,
   94, -128, 126, -114, -21, -40, 17, -71,
   24, 127, 22, 127, -56, -56, 89, -128,
   -6, 20, -14, -38, 56, -30, -24, 108,
   56, 2, 61, 10, -56, 5, 82, -44,
   25, 125, -3, 87, -108, -92, -81, 119,
   -49, 10, 30, 106, -48, 64, 98, -63,
   54, 96, -3, -16, -88, -50, -2, -31,
   13, 89, 12, 27, -37, 37, -15, 127,
   -30, 91, -50, 44, -65, -127, 6, 125,
   40, -48, -74, -22, -28, 127, 3, -22,
   47, 16, -42, 20, -128, 7, -6, 80,
   -47, 106, 28, 122, -52, -53, -9, -47,
   85, -31, -5, 57, -60, 15, -58, 33,
   5, 76, 67, 79, 65, -49, -13, 127,
   26, 6, 79, -10, 8, 54, 81, 97,
   19, -4, -80, -16, -14, -22, 16, 27,
   -41, 124, -43, -6, 61, -69, 18, -42,
   -41, -48, -5, 18, -29, 103, 55, 123,
   94, -113, -128, 57, 44, -15, 34, 126,
   -73, -82, -29, 115, 52, 8, 108, 79,
   -53, -74, -82, 109, -12, -79, -33, -8,
   36, 11, 75, -77, 44, -42, 26, 117,
   23, 97, 3, -27, -19, -21, -22, 80,
   93, 73, 38, 16, -25, -17, -39, -58,
   -105, -39, -36, 95, 1, -29, 9, 3,
   36, -6, -20, -56, 49, -70, -94, -2,
   -1, 46, -80, -72, -56, -78, 34, 23,
   40, -15, 82, 0, 14, -56, 56, 18,
   72, 42, 42, -34, -62, 25, 7, 60,
   -8, -38, 35, 36, 82, 52, 17, 55,
   -32, 39, -5, 15, -35, 69, -24, 9,
   3, 27, -37, -16, 9, -31, -85, -102,
   -60, -18, -33, -77, 46, 32, 3, -39,
   -40, 24, 18, 15, -12, -22, 22, -54,
   -128, -79, 26, -45, 74, -87, 70, -97,
   4, 22, -45, -32, 42, 37, -112, -78,
   -38, -28, -109, 100, -123, -64, 21, -21,
   21, -16, -2, 65, -20, -11, 96, -114,
   4, 59, -5, -7, 92, -117, 16, 0,
   -53, -88, 21, 57, -122, 0, -1, -57,
   69, 117, -34, 55, -64, -86, 78, -64,
   -128, 12, -60, -42, -29, 23, -96, -61,
   -78, -21, -13, -5, -57, 22, -34, 25,
   -30, 105, -74, 9, -44, -70, 127, 57,
   -56, 51, -27, -90, -84, -42, 35, -25,
   -66, 51, 3, -52, 127, -19, 79, -2,
   21, 51, -27, 43, -68, 69, 73, 82,
   -4, -105, -17, 125, 104, -14, 40, -39,
   -127, 83, 62, 84, -7, 5, 17, 43,
   3, 122, 7, 127, -37, 15, 3, -49,
   -31, -42, -126, -11, -44, 126, -31, -21,
   -13, 45, -43, -51, 79, 22, 91, 105,
   -128, -54, -19, -67, 15, 9, -76, 8,
   87, -28, 21, 16, 62, -87, -21, 35,
   80, 58, 8, -83, 32, 7, 112, 57,
   29, 37, -69, 53, 92, 49, 80, -8,
   54, 92, -71, 37, -26, 127, -103, 124,
   -87, -39, 43, -50, -2, -23, 32, -38,
   -91, -4, -69, 5, -71, -25, 15, 35,
   -4, 22, 28, 15, -63, -78, 108, -104,
   109, -24, -74, -94, -5, 14, 45, -68,
   43, 127, -37, -127, 75, -68, 122, 98,
   -48, 41, 102, -35, 55, -50, 33, 54,
   8, 38, -85, 68, 121, -63, 97, 27,
   31, -26, 42, -7, -52, -71, -14, 13,
   -71, 7, 8, 127, 30, 43, -63, 61,
   6, 32, -32, -55, 7, 16, -25, -28,
   26, 127, 2, -20, 100, 0, 46, 126,
   22, 15, 49, 67, 19, -49, 26, 68,
   -33, -11, -109, -33, 24, -50, 126, -29,
   -21, 98, -54, 67, 125, 75, -29, -51,
   112, 0, -107, 14, -90, 51, 4, 36,
   -21, 3, -27, 67, -122, -83, 23, 127,
   -47, 99, -47, 25, -7, 63, 56, 105,
   38, -15, 29, 3, 90, 10, -7, -63,
   39, 119, 0, 35, 69, 32, 81, -84,
   122, 22, -12, -25, 15, -127, -34, -28,
   -75, 127, 80, 44, 51, 80, -126, -3,
   -127, 29, -8, -124, 14, -106, -10, -127,
   -3, -21, -21, 16, 16, -3, 78, -128,
   -100, -103, 10, -127, -87, -93, 14, -75,
   15, 54, 101, -126, -19, 16, -56, 22,
   40, 56, -4, -92, 76, 1, 8, 16,
   -128, -83, -10, -13, 47, -28, 89, -58,
   -118, 109, -12, 45, -29, -24, -4, 25,
   53, -32, 65, 105, -117, 12, -73, -128,
   -17, 0, 28, -32, 17, 6, -17, -101,
   9, -8, -9, 9, -49, -10, 66, -43,
   127, -76, 2, 17, -92, -14, 9, 1,
   98, -38, 63, 23, -17, -83, -33, -121,
   -52, 28, -21, 122, -25, -127, -103, 42,
   24, 45, 29, -31, -54, 127, 120, 66,
   12, -4, -15, -28, 18, 94, 97, 73,
   -31, 25, -37, 69, -38, -85, -49, -64,
   -57, 10, -40, 127, -58, -66, -55, 31,
   -74, 45, -11, 21, 127, -83, -26, 46,
   123, 91, 13, 82, -11, 66, 17, -29,
   21, 71, 120, 7, 19, -6, -43, 121,
   20, -8, -31, -45, 13, -89, 50, -55,
   -12, 18, -79, -35, -21, -48, 46, -23,
   68, 49, 57, -66, -13, 57, -30, -44,
   -99, -32, -72, 48, -52, 49, 38, -23,
   2, 60, 4, -17, -46, 19, 53, 74,
   78, 111, 1, 108, 52, -56, -39, 125,
   -1, 0, 43, 114, -4, -5, -90, -3,
   -46, -14, -67, -52, -27, -43, 93, -7,
   25, -53, -40, 14, -127, -32, 1, 119,
   122, 13, 41, 94, 94, -93, 76, -41,
   127, -40, -92, 104, -23, 63, -128, 45,
   126, 89, 2, -49, 127, 0, 62, 21,
   -25, -36, 68, 31, 57, 33, -13, 41,
   -128, 127, -53, 104, -95, -25, 69, 26,
   -73, -24, -55, 34, 127, -86, -49, -18,
   35, 46, -114, 127, 68, -63, -56, -24,
   -59, 71, -68, -25, 32, 0, 8, 24,
   -58, 48, 13, 14, 42, 77, -128, -70,
   -43, -54, 60, 17, 48, 21, 8, 44,
   -128, -6, -93, -105, 30, 41, 83, -121,
   126, -42, 80, -125, 120, 21, 23, -10,
   -67, 29, 70, 127, -63, 127, -5, 90,
   16, 27, -11, -58, -9, 118, 79, 33,
   46, 88, 49, 23, -48, 43, 2, -27,
   32, -128, -14, 10, -50, 27, -63, 13,
   -125, -24, 37, -69, 47, -26, 127, -126,
   -14, 72, 47, 9, 14, -85, -30, 36,
   127, -108, 118, -125, -68, 87, 49, 78,
   -69, 13, 127, 48, 50, 10, -25, -24,
   122, 127, 1, -17, 123, 57, 127, 48,
   -52, 27, 127, -110, -21, -127, 72, 34,
   -128, -125, -7, -16, 86, -15, 110, -124,
   66, 3, -27, 74, 34, -1, 48, 30,
   127, 23, -75, -15, 62, 9, -126, -13,
   -40, 55, 83, 110, 37, 115, 76, -62,
   -26, 26, 99, -108, -11, -3, 100, -58,
   32, 69, -42, -5, 25, 39, -111, 8,
   36, -54, -1, -127, -99, -52, 109, 103,
   38, -57, -127, -65, -70, 19, 14, 9,
   -114, -7, -34, 58, -37, 79, 127, -63,
   103, 26, -53, -121, 35, 124, 36, 43,
   14, -73, 4, 87, 71, 1, 57, -18,
   -9, 71, 127, 107, -42, -67, 59, -12,
   94, -8, 7, 70, -93, -110, 117, 111,
   106, 42, 127, 50, 114, 24, -23, -128,
   -52, -58, 12, -105, 118, -29, 25, 50,
   -122, 78, -63, 107, 19, -27, -48, 2,
   127, -128, -30, -106, -128, -44, -43, 121,
   -3, 110, 72, -47, -58, 16, 124, 33,
   -128, 55, 111, -115, 43, 127, 125, 2,
   127, -18, -46, 17, 126, 112, -7, -45,
   22, -64, -44, 55, 127, -117, 46, -128,
   110, 53, 30, -28, -19, -115, 56, -123,
   -15, 127, 104, 110, -91, -25, 9, 84,
   48, -27, 41, 125, 25, 13, -56, 20,
   76, -1, -128, 29, 127, -39, 3, 22,
   123, 82, 2, -51, 33, 12, 23, 81,
   -46, -71, -12, 109, -43, -79, -24, 75,
   61, 126, -76, -7, -9, 21, 119, -127,
   2, 127, 113, 30, -6, 47, 64, 119,
   59, 15, -123, 71, -73, 69, 30, 37,
   70, -16, -128, -104, 61, -93, -2, -14,
   -16, 24, -128, -43, -8, 25, -74, -128,
   23, 105, 74, -65, 125, -29, 19, 86,
   15, 31, 31, -21, -34, -72, 44, -53,
   127, -128, -61, -40, 126, -38, 62, 40,
   -16, -126, -54, -104, 18, 31, 127, -49,
   40, 45, -86, -26, 26, 127, 10, 25,
   7, -127, 77, -7, 28, 11, -86, 120,
   -35, -54, -53, 81, -2, 93, -66, 99,
   -49, 66, 26, 66, 54, 127, -63, 99,
   -126, 127, 9, -19, -123, -28, -85, -128,
   76, -67, 10, 104, -26, 122, -116, -22,
   -25, -127, 30, -125, -18, -24, -47, -36,
   52, -20, 106, 31, 56, 26, -8, 30,
   -27, 42, -124, -10, -50, 31, -18, -103,
   -3, -54, -128, -126, -79, 109, -90, 56,
   -43, 127, 26, 56, -107, 9, -128, -128,
   104, -6, -1, 121, -39, -127, 8, -15,
   12, 23, 40, 60, -51, -127, -1, -60,
   -126, -1, -112, -124, -63, 127, -125, 28,
   17, 40, 19, -37, 127, -128, 100, 49,
   127, -49, 62, -32, 56, -73, -67, 11,
   -34, -86, 18, -45, -52, 69, 127, -94,
   -85, -79, -53, -128, -111, 17, 127, 91,
   41, 49, 21, 127, -98, 59, -35, -40,
   -128, -36, -76, 24, -42, -95, 45, 15,
   62, -22, 124, -46, -125, 63, -128, -1,
   48, -73, 119, 57, 127, 127, 86, 127,
   -47, -69, 16, 81, -47, 28, 99, -8,
   -15, 55, -44, 95, -15, -21, -66, 117,
   -101, -17, 46, -124, -128, 41, 7, 13,
   125, 63, 36, 84, -91, 79, 24, -17,
   3, 105, 20, 92, -49, 80, 20, 53,
   22, 92, -4, -43, 16, 115, -11, 89,
   -28, -126, 54, -14, -32, -42, 50, 9,
   86, 40, 73, 113, -37, 36, 30, -2,
   76, 91, 8, 127, -79, 31, 17, -8,
   -60, 21, -70, -89, -65, 32, -37, -33,
   -128, 97, -11, 22, -124, -36, 112, -75,
   25, -56, 53, -63, -119, 9, -83, -1,
   111, -83, -92, 34, -91, 5, 97, -17,
   -54, 2, 45, 80, 58, -38, 75, -32,
   -32, -39, 42, -28, -16, 71, -32, -80,
   52, -70, -7, 72, 86, 76, -50, 35,
   -21, -40, -15, 4, -80, -45, 49, -47,
   46, 45, 50, 81, -125, -54, 79, -96,
   69, 67, -40, 22, -21, -21, -20, 70,
   -51, -33, -71, 17, -21, 2, -73, 22,
   69, -15, -80, 4, 127, -14, -18, 53,
   22, -12, -13, 27, 18, -121, -24, 53,
   57, -60, 58, 72, 32, 25, 3, 30,
   -82, -23, -25, 19, -57, 21, 19, -60,
   42, 42, 28, -61, 104, 7, -64, -36,
   -4, 2, -35, -4, -53, -92, -27, 82,
   47, 46, -65, -107, 83, -22, -50, -85,
   127, 14, 42, -66, 33, 63, 54, -126,
   -128, 1, -125, 10, 39, 52, 50, -117,
   12, -47, -69, -101, -19, 90, -123, 40,
   54, 121, -21, 119, -127, 127, -128, 76,
   77, -10, -98, 39, 117, -62, -119, -116,
   15, -78, -126, -128, -56, 44, 105, 127,
   127, 126, -57, -54, 123, 55, -41, -67,
   -47, -123, -60, -120, -127, 35, -43, 125,
   76, -6, -125, -21, -63, 55, -124, -128,
   -68, 127, 6, -116, 2, 70, 58, -126,
   15, -48, 108, -17, 63, 125, 10, -106,
   50, 127, 15, -34, 37, 103, -128, 100,
   88, 103, 126, 66, 59, -44, -64, -36,
   -43, 12, 15, 11, -66, -79, -106, -125,
   -126, 62, -52, -123, -21, -12, -15, 72,
   -113, 127, 2, 127, 93, 21, 127, -127,
   52, 49, -58, 46, -115, 43, 0, 43,
   103, 5, -127, -71, -103, 64, 12, -13,
   -29, 97, 54, -88, -19, 99, 5, -1,
   30, -124, 77, 14, 6, -35, 93, 24,
   -14, -64, 102, 58, 123, -86, -128, -61,
   -104, 19, -27, -35, 29, 109, 45, -12,
   -127, 7, 69, 25, 127, -25, -11, -32,
   81, 84, -54, 50, 122, 35, 51, -122,
   -18, 72, -27, 126, -38, -67, 13, -9,
   -36, 53, 51, -119, -57, 75, 68, 29,
   100, -116, -83, 126, -6, 59, 39, 114,
   52, -32, -11, -11, -86, -55, 110, 32,
   -25, 80, -60, -53, 47, 124, 60, 89,
   -37, 28, -44, -127, -79, -37, 33, 69,
   79, -13, -40, -125, -91, 74, -70, -58,
   -42, 97, -47, 83, -14, 75, 15, -15,
   24, 125, -13, 92, -34, 26, 101, 126,
   0, -59, -111, 40, -16, -89, 37, 127,
   -14, 99, 125, -31, -74, 35, -35, 126,
   -47, 25, -127, 26, -122, -128, 63, 21,
   14, -71, -27, 73, -73, -120, -11, -43,
   -101, -84, 28, 34, 69, -60, 5, -125,
   -88, 43, -74, 99, -14, 5, -128, 127,
   -70, 123, -53, 126, -36, -31, 124, 80,
   -102, 11, -128, 24, -33, 73, 127, 30,
   -128, 126, 114, -2, -5, 61, -50, -70,
   -128, 64, -40, -4, 96, -105, -56, -70,
   -128, 94, -23, 28, -93, -100, 72, 86,
   -12, 127, 53, -40, -52, -127, 127, -58,
   -91, 9, 109, -36, -22, -6, -119, -19,
   -128, 16, -122, -42, 29, 125, -35, 89,
   127, -64, -15, -73, 79, 31, -49, -124,
   64, 80, -11, -83, 121, -127, -70, 6,
   23, 13, -4, -83, 107, -39, -61, -64,
   -35, -118, 6, 62, -10, -50, 127, -84,
   17, -20, 68, -123, -73, -16, -73, -124,
   -113, -7, 37, -124, -63, -128, 89, 127,
   72, 110, 22, 110, -35, -40, -103, -128,
   -17, -73, -25, 96, -14, -28, 5, -21,
   -126, 10, 11, -9, 38, 75, -21, 54,
   28, -43, -1, 10, -48, -8, 12, 1,
   14, -42, -1, 22, 18, 24, 76, -11,
   45, 57, 53, -62, 105, -6, 27, -59,
   40, 34, -39, -53, -5, -55, -32, 63,
   10, 65, -10, -67, 20, -54, 51, -10,
   127, 20, 10, 36, -127, -70, 74, 69,
   110, -18, -39, -46, -29, -49, 55, -56,
   47, -8, -6, -62, -22, 26, 32, 82,
   17, -27, -34, -79, 41, -81, 120, -63,
   72, 17, 127, 15, -90, -5, 82, 61,
   75, -45, -7, 0, -42, 12, 49, 99,
   -128, -102, -46, 32, 127, -15, 13, -35,
   -22, 100, -17, 65, 47, -32, 8, 58,
   -7, -2, 26, -34, -61, -58, -38, 14,
   -1, 29, 29, -61, 5, 28, -127, 65,
   -22, 88, 65, -2, -36, -26, 78, 37,
   29, -5, -100, 56, 31, -35, -3, -53,
   -16, 125, -81, -29, -58, 4, -14, 11,
   -41, -11, 14, -27, -14, -12, -102, 54,
   7, -113, -87, 100, 14, 97, -37, 39,
   -89, 22, -49, -84, -116, 15, -17, -1,
   20, -24, 55, -20, 2, -53, -62, 45,
   -40, -128, -3, 52, 7, -45, -46, 65,
   105, -127, -6, -94, 13, -51, -16, 127,
   -15, -22, 57, 97, 9, -48, 74, 2,
   87, -49, 83, 30, -30, -102, 6, -22,
   47, -35, -18, -25, 57, -22, 75, 38,
   10, 35, -37, 52, 48, -10, 25, -30,
   73, -16, 62, -39, -22, 52, -19, 80,
   -23, -45, 5, -63, 52, -32, -63, -128,
   -3, 102, 0, -46, 35, 14, 13, 127,
   -54, -5, -8, 26, -127, 112, -63, -44,
   -1, -10, 59, -43, -51, -58, -80, -38,
   -78, -24, -58, 84, 55, 81, 26, -55,
   -43, -27, 74, -72, -33, -28, 52, 83,
   125, -48, -64, -5, 101, 18, 22, 7,
   126, 119, -66, -51, 127, 126, -19, 52,
   -6, -28, 49, 11, 51, 40, -46, 84,
   64, 80, -62, -36, 58, 98, 45, 5,
   15, -4, 34, 33, 9, -108, -3, 76,
   43, -75, 25, 72, 29, 30, 2, -80,
   -69, -31, -128, 114, 59, -78, 79, 11,
   59, 108, -102, -118, -62, 30, 28, 58,
   51, 75, -128, -18, -26, 30, -3, 49,
   -32, -26, 127, -33, -70, -48, 25, 95,
   125, -85, -124, 8, 14, -78, -97, -32,
   45, 43, 3, -12, 11, -46, 89, -46,
   -20, 3, 120, -34, 38, -40, -63, 103,
   55, -128, 9, -35, -57, 7, 65, -54,
   59, -57, -34, -42, 15, 48, 8, 73,
   -78, -33, -46, -1, -19, -35, 118, -9,
   74, -22, -83, 53, 86, -87, -84, -46,
   -96, -108, -108, 51, -22, 33, -25, 0,
   -21, -124, -57, -88, -56, 52, -11, -20,
   -68, 78, -69, 71, 3, 28, 74, -116,
   -17, -47, 8, 119, 6, 75, -115, -27,
   14, 34, 20, 40, -66, 117, 73, -120,
   -37, 91, -125, -52, -106, -80, -17, 49,
   10, -68, -90, 99, 43, 20, -12, -23,
   -19, 123, 127, 127, -128, 67, 8, 69,
   90, 6, 53, -18, 127, -122, -81, 109,
   -64, -36, 44, 78, 9, -16, -49, 11,
   78, -73, 34, 6, -35, -23, -128, -57,
   126, -30, 127, -42, -14, 78, 75, -51,
   -127, -10, 85, -75, 77, -39, -37, 50,
   -105, -40, -6, 22, 48, 17, 85, -11,
   -25, -80, -29, -9, 75, -125, -127, 59,
   -36, -58, 64, -69, 26, 35, -34, -29,
   -93, -12, 13, -82, -29, 64, 127, -125,
   -21, -45, 127, -63, -87, 122, 97, 34,
   -98, -32, -24, -65, -75, -13, 70, 96,
   -3, 36, -2, -49, 13, 27, -70, 31,
   127, 17, 122, -50, 111, -14, -12, 126,
   -90, 61, -100, 68, -100, 12, 25, -20,
   -81, -86, -23, -2, -37, -42, -29, 75,
   -58, -19, 127, 58, -56, 51, -64, 6,
   3, -100, -5, 87, 36, 71, -47, 49,
   31, -50, -88, 95, 127, 19, 6, 56,
   -77, -125, -18, 36, -57, 54, 29, -26,
   32, 78, 61, -127, -43, -14, -123, -18,
   61, 49, 23, -4, -73, -9, -110, 2,
   95, -21, -104, -36, 15, 52, -58, 84,
   25, -27, -1, -7, 120, -21, 55, 7,
   -23, 44, 127, 21, 13, 8, -7, -21,
   1, 32, 100, -5, 66, 28, -32, 17,
   -15, -41, 127, -22, 57, 29, 35, -14,
   4, 66, -5, -34, 23, -94, 9, 22,
   -10, -42, -127, 26, 30, 112, -79, -70,
   -9, 37, 54, -8, 127, 24, 72, 16,
   25, -93, -15, 0, 43, -88, 12, -3,
   -20, -69, -104, 35, -28, -107, -40, 109,
   -12, 64, 78, -25, -68, -51, -128, 10,
   55, -1, -57, 108, -2, -46, 123, 68,
   -68, 16, 26, 94, 31, 94, 46, 75,
   -21, 74, -72, -21, -57, -15, -10, 127,
   -15, 125, 72, 0, -61, -4, 37, -116,
   104, 46, -125, -56, -93, 127, 126, -79,
   78, 29, -128, -128, 54, 61, 126, 71,
   -58, -21, -27, -53, -117, 105, -79, 119,
   -57, 27, -19, -76, 62, -14, 25, -85,
   29, 39, 5, -31, -31, -49, -114, 91,
   33, -60, -75, -28, 86, -89, 17, 23,
   64, -52, -128, 28, -37, 85, 43, -128,
   -3, 53, -98, 59, 125, 48, 34, 48,
   24, -75, 60, -85, 27, -1, -12, -11,
   39, -75, -54, -94, 2, -89, 62, -105,
   -8, 82, -49, 38, -1, 0, -96, 18,
   -123, 4, -72, -17, 58, -121, -5, -50,
   35, -9, 20, -44, 45, 9, 98, -9,
   33, 20, 57, -37, 42, -78, -91, -24,
   95, -25, -87, -33, -29, -106, 64, 41,
   2, -109, -23, -18, -5, -124, -10, 64,
   38, 83, -13, -62, -36, -67, 79, -4,
   41, 2, -46, 71, 40, 8, 53, 20,
   50, -32, -32, -67, 7, -122, -96, -12,
   45, -5, -27, -48, -125, -43, 66, 8,
   15, -43, 58, -23, -27, -44, -15, -62,
   27, -16, -7, -95, -79, -69, -43, 0,
   76, -11, -4, 20, -37, 21, 51, 120,
   -71, -25, 21, 12, 126, -72, 21, 5,
   -20, 20, 44, -10, -16, -28, 35, -14,
   68, 2, -25, 40, -126, 29, -1, -13,
   -1, -21, 81, -19, -76, -42, 27, -31,
   -21, -20, -72, 94, -88, -40, -6, 31,
   4, -29, 33, 109, -3, 106, -11, -14,
   -115, 22, 99, -65, 10, 127, -18, 41,
   -126, -60, -2, 72, -31, -44, -128, 3,
   58, -20, -46, -72, -1, 125, 56, 63,
   -57, -6, 52, -75, -40, 33, -43, 86,
   93, 46, 103, -2, -22, 48, -92, -65,
   -108, -99, 14, -68, -12, -34, -59, 103,
   47, 71, -28, -14, 69, 13, 84, 110,
   -28, -52, 35, 69, -14, -51, -45, 54,
   -32, -42, 81, -59, 5, 54, -13, -4,
   39, -31, -109, 60, 31, -19, 8, 63,
   -127, 36, 43, -57, 34, -80, -33, 34,
   57, 8, 52, 31, -17, -33, -18, 95,
   5, 69, 97, 65, 70, -4, -42, -123,
   33, 9, -92, -13, 34, -69, -6, 125,
   -3, 27, -35, -8, 78, -6, -45, -48,
   47, -49, 91, -57, -66, 9, 19, 61,
   -6, -2, -62, 8, 78, 32, -23, -59,
   -50, 13, 42, -33, -14, -62, -66, 78,
   126, 47, -85, 6, -12, 16, -37, 12,
   3, 10, 74, 113, -21, 23, 29, 45,
   74, 36, 6, -5, 32, 59, 42, -67,
   77, 127, 100, -54, 94, -57, 8, 10,
   -51, -33, 10, -3, 122, 1, -39, 35,
   0, -85, -44, 119, -117, 47, 10, -29,
   -1, -47, -31, -18, 25, 52, 43, 50,
   -45, -63, -84, -56, -15, -20, 100, 1,
   20, 21, -46, -31, 61, -11, -60, 45,
   -73, -10, -41, 16, -58, 87, -123, -49,
   66, 7, -75, 62, 51, -7, 5, -104,
   64, 12, -55, -40, 10, 45, -24, 42,
   113, -55, -25, 13, -26, 46, -86, -34,
   64, -37, -73, 27, 52, -25, 83, -89,
   12, -1, 67, -77, -47, -28, -24, -19,
   38, 4, -112, 10, 77, -12, -5, 45,
   66, 42, 33, -50, -15, 81, 1, -92,
   -60, 1, 24, 92, -15, 38, -44, 19,
   77, -128, -124, -91, -38, 117, 90, 7,
   -63, 98, -61, -94, 77, 108, -43, 24,
   -33, -58, -92, 3, 97, 65, -69, -68,
   31, -1, 1, -65, -55, -26, -26, 6,
   -106, -42, -36, 8, -16, 33, -111, 46,
   45, -10, -42, -17, 43, 83, -52, -127,
   -46, -30, -67, 68, -98, -29, 61, 27,
   -10, 20, -18, 26, 50, -108, 21, -62,
   -74, 21, 31, 48, 57, -62, -33, -16,
   -61, -29, -81, -62, 6, 18, 82, 57,
   -59, -55, 88, -98, -11, 22, 50, -107,
   -95, -56, 120, 44, 17, -64, 17, 11,
   -3, 113, -128, -31, 39, -14, -20, -37,
   -12, -90, 110, 16, 51, 58, 32, -41,
   -32, -51, 45, -35, -12, 45, 35, -10,
   18, -23, -72, 9, 48, 24, -17, -30,
   -78, -68, 125, 35, -69, 89, 6, -92,
   -116, 37, -110, 23, 104, 59, -25, 13,
   43, 25, 127, 89, 116, 10, -32, 125,
   17, -109, -25, 90, -96, -125, -31, 51,
   9, 18, -118, -94, 72, -120, 66, -30,
   127, 101, -94, 26, 9, 10, -32, 10,
   31, 21, 6, 36, 127, 53, 81, -58,
   11, -64, 108, -41, -103, -72, -59, 62,
   -17, -4, 69, 28, -57, 18, -6, -30,
   15, -63, 26, 46, 122, 18, 65, 29,
   -2, 55, 113, 0, -126, 104, -121, -6,
   -65, 2, -125, -46, -32, -15, -126, 93,
   -96, 37, -44, 30, 95, -41, -89, -127,
   42, -22, 23, 70, 4, 93, -94, 47,
   -13, 40, -8, 23, 57, -57, 4, 4,
   -6, -26, -36, 38, -25, -83, 29, 21,
   45, 65, 63, 118, -45, 71, -31, 9,
   -50, 32, 14, 48, 80, 58, 127, 12,
   44, -15, -6, 23, 33, 53, 43, -57,
   -3, 86, 123, -8, -25, 23, 126, -87,
   103, 14, 19, -47, -23, -23, -45, 47,
   78, -17, -53, 127, 24, -79, 57, 42,
   -15, 35, 38, 76, -116, 25, 10, -45,
   122, 127, -115, -46, 37, -70, 17, -20,
   61, 9, 3, 42, 7, -91, 104, 58,
   -111, -56, -14, 28, -48, 56, -75, 82,
   -67, 81, -95, 74, -31, 58, -102, 48,
   110, -27, -40, -83, 70, -75, 82, -34,
   -115, 11, -59, -37, -14, -30, 27, 34,
   4, -23, 127, -59, 25, -78, -13, 29,
   16, 7, -11, -57, -7, 125, -33, -84,
   5, -12, 32, 13, 31, -96, -12, -1,
   -70, -35, 62, -25, 46, -6, 17, -10,
   -11, -32, 56, -20, -5, -65, 76, -106,
   -24, -11, -37, 41, 80, -70, -30, 23,
   13, 43, 13, -5, 75, -22, -19, -11,
   -23, 11, -17, -74, 48, 46, -28, -95,
   35, 122, 108, -77, 36, -85, 56, -23,
   127, -113, 110, 125, 53, 60, -111, 12,
   -107, -10, 54, -71, -5, 19, 40, 64,
   -127, 40, -94, -19, -67, 67, -6, -18,
   33, -38, -128, 69, -126, 0, -128, -62,
   38, 97, 70, -28, -14, 5, -61, -80,
   -11, 123, 62, 37, -27, -24, 36, -15,
   -72, -19, -20, -23, 27, -33, 83, 59,
   34, -40, -53, -61, 63, -51, -15, -116,
   127, -97, 14, 43, 64, -13, -87, -3,
   -42, 6, 35, 21, -80, -28, 13, -38,
   -4, 11, -20, 21, -4, -44, -127, -39,
   -63, -2, -54, -19, 11, -13, -44, 33,
   2, 10, -40, 11, -8, -46, -42, -26,
   5, -24, -28, 80, 89, -23, 59, -123,
   127, -50, 31, -41, -34, 42, -67, 32,
   -26, -16, -69, 123, 127, 55, 126, -87,
   10, 5, -91, -68, -5, -52, -128, -33,
   3, 127, 68, -17, -44, 56, 18, -26,
   127, -106, 71, 125, 39, 68, -52, -4,
   -62, -29, -11, -122, 16, 58, 127, 1,
   -125, 37, 50, -52, -27, 22, 30, -12,
   -16, -54, -91, 127, -80, 62, -128, -83,
   1, 59, -3, 29, 4, 109, 4, -48,
   -82, 25, -2, 92, -61, -37, -32, 27,
   -57, -12, -83, 32, 74, 13, 40, 31,
   78, -36, 8, -27, 106, 3, 22, -91,
   127, -118, -76, -22, 17, -13, 26, -38,
   39, 5, 121, -75, -50, -28, 17, -86,
   -60, -15, -79, -4, -9, -46, -97, -43,
   -77, 7, -12, -16, -32, -95, -26, 95,
   -18, 62, 15, 17, -13, 13, -26, -84,
   45, -60, 21, 8, 73, 8, -11, -111,
   127, -111, -119, -51, -91, 14, -25, -17,
   -81, -6, -28, -29, 127, 30, 127, -78,
   33, 3, -53, -21, -20, 27, -127, -45,
   -20, 67, 34, 53, -91, 125, 25, 59,
   9, 125, -23, -9, -70, -10, -42, -44,
   126, -112, -50, 39, 24, 35, 27, 127,
   -12, 22, 90, -127, 36, -16, -6, -20,
   -127, -58, 101, 42, 102, 109, 61, 49,
   -98, -33, -30, -21, -15, 3, 127, 29,
   -73, -17, -59, 42, -81, 85, 19, 33,
   111, -17, -70, 60, 77, 28, -104, 80,
   89, -92, 99, -24, 81, 18, -29, 18,
   -95, 2, -86, -93, -125, 22, 106, 29,
   100, -44, -57, -71, 75, -93, 57, -14,
   22, -19, -57, 15, 42, 73, 124, -87,
   -12, 4, 5, 127, -32, -78, 97, 48,
   44, 24, -89, 13, 108, -41, 84, -26,
   123, 81, 66, 3, 3, -90, -8, 41,
   -35, 37, -128, 18, -52, 85, 23, -15,
   -23, 65, 127, -111, -15, 124, 48, -103,
   63, 60, 44, 29, -64, 123, 74, 38,
   68, 62, 84, -126, -8, 15, 54, 96,
   85, 91, -28, -57, -48, -74, -95, 23,
   59, 60, 83, 104, -15, -41, 61, -17,
   -42, -54, -67, -13, 33, 97, 11, -27,
   -19, -88, 42, 86, -103, 78, 10, -67,
   27, 52, 50, -68, 81, -35, -114, 3,
   -13, -92, -103, -18, 47, 14, -8, 11,
   15, 5, -11, -58, 46, 9, -81, -29,
   30, -55, -56, 18, -51, 57, 2, 31,
   22, 50, 27, -74, -6, 4, -75, -9,
   -51, 78, -22, 1, -60, 52, 26, 20,
   120, -33, -65, -18, 49, 38, -28, -83,
   -106, -98, 30, 31, 63, 22, -5, -66,
   -33, -95, -64, -71, 22, -35, 29, 26,
   38, 97, -88, 11, -58, -117, -10, -127,
   -2, -3, 16, -15, 8, -19, -93, 46,
   -77, 25, -31, -68, 56, 67, -80, 50,
   -14, -3, -88, -83, -31, 66, -62, -43,
   96, 78, 19, -123, -74, 78, -2, 11,
   9, 26, -42, -68, -107, -48, 36, 36,
   36, -18, 105, -64, -123, -83, 127, 120,
   -32, 79, -85, 13, 44, 54, 100, -75,
   16, -61, 22, 73, -33, -40, 65, 123,
   52, 76, -123, 59, 108, -30, -95, -119,
   -39, 75, 0, 127, 10, -12, 22, 38,
   -31, 17, 1, -38, 59, 32, -23, 17,
   47, 49, -12, 40, 22, 84, 17, 53,
   94, 55, -56, 48, 30, 27, -12, -1,
   -80, 107, 9, -45, -6, 107, 32, -23,
   57, 66, 58, -76, 115, 12, 34, -49,
   0, -4, -57, -73, 14, -53, 37, -117,
   20, -106, -128, 61, -12, 34, -10, -67,
   -30, 120, -16, 5, -17, -79, -9, 19,
   54, -67, -102, -57, 102, -6, -61, 14,
   -127, -1, -48, -95, 31, 64, -64, -94,
   93, 31, -12, -28, 76, -105, -36, -65,
   70, 51, -26, -49, -64, 2, -33, -57,
   -122, 111, 38, -21, -118, -20, -57, 86,
   -98, -122, 34, -118, 14, 34, 52, -128,
   45, 127, 13, 127, 127, 9, -91, 90,
   31, 3, 121, 42, -93, 64, 55, -36,
   85, 72, 9, 10, 70, 61, 116, -92,
   -88, 11, -35, -33, -87, 79, 52, -126,
   -13, 25, 30, 37, -96, -22, 17, -69,
   41, -48, 79, 121, -8, -55, 77, 44,
   26, 13, -93, 66, -74, 45, -127, -23,
   0, 100, -67, -72, -57, 110, -27, 44,
   101, 119, -12, 28, 127, 61, 87, 36,
   27, 1, -57, 66, 4, -55, 19, -120,
   113, -23, -67, 69, 115, 29, 28, 15,
   -51, 92, 29, 116, -3, -53, 15, 23,
   44, 16, -45, 29, -7, 14, 19, -3,
   -97, -25, 26, -97, 43, -80, 19, 0,
   126, 57, -40, -84, -35, -37, 9, -3,
   34, -22, -72, -27, 53, 20, 19, 19,
   -56, 51, -15, -25, 102, -24, 37, 31,
   51, -44, -10, 11, -21, -27, 125, 61,
   43, 54, 72, -43, 29, -10, 42, -3,
   119, -1, -12, 105, 93, -56, 17, 15,
   -90, 26, -6, 3, -7, -69, -48, 21,
   127, 13, -23, 25, 33, -1, 48, -11,
   30, 5, 59, 36, -8, 56, 27, -46,
   -39, -2, 69, 28, 31, -60, 22, 127,
   -4, -28, -47, 17, 17, 36, -39, 17,
   -120, -44, -6, -63, 1, 1, -92, 44,
   13, 45, 2, 25, 32, 15, 15, 6,
   3, 12, -52, -26, -4, -20, 31, -23,
   -4, 0, 3, 24, 15, -30, 4, -17,
   6, 31, 21, -7, -15, 18, -7, -2,
   -3, -7, -63, 42, 6, -8, 15, -22,
   -22, 29, 61, -72, 4, -1, -29, -10,
   32, 29, 14, -49, 15, 14, 14, 16,
   -9, 55, -7, -68, -35, -26, 97, 33,
   -86, 34, -81, -23, 8, -23, 15, 21,
   104, -18, -1, -49, 15, -1, -75, -87,
   -38, 9, -64, -4, -40, 11, -79, -18,
   26, -43, -67, -23, -24, -23, -39, -9,
   27, 56, -46, -96, 22, 39, -38, 33,
   -46, -58, 33, -16, -24, 57, 1, 3,
   -13, 10, -59, 39, -59, -15, 42, -50,
   33, 8, -1, 2, 40, -97, 24, 25,
   -21, -4, 54, -33, -11, 49, -2, 11,
   32, 37, -34, -18, -62, 3, 26, 21,
   -18, -26, 70, -43, -5, 54, 47, -89,
   32, -43, 13, -17, 0, -16, -8, 4,
   -59, 15, -25, -44, -25, -38, 31, 91,
   31, -32, 14, -15, 38, -2, -35, -61,
   -31, 11, -44, 8, -2, -15, -37, -10,
   -18, -18, -44, -63, -18, 1, -74, -29,
   -60, 28, -23, 11, -27, -18, 9, -45
};

static const rnn_weight noise_gru_recurrent_weights[6912] = {
   -38, -12, -16, -4, 53, -4, -47, -34,
   -10, -28, -4, -21, 42, -73, -7, 53,
   19, -48, -40, 47, 20, -9, 59, 9,
   -24, -45, 23, 2, -85, -5, -16, 21,
   -36, 4, 69, 60, -11, -52, -95, 46,
   14, -9, 68, 68, 36, 1, -58, 37,
   6, -57, 27, 51, 21, -32, 9, 11,
   39, -33, 25, -3, -87, 47, -4, -27,
   30, -25, -17, 83, -54, 14, -8, 4,
   -19, -29, -2, 74, -33, 8, -87, 7,
   -40, 6, 63, 48, -80, 4, 0, 20,
   31, 6, 20, 30, -3, 3, 26, -54,
   -26, 21, -5, 48, 56, 12, 12, -55,
   -41, -12, -20, 54, 56, -33, -9, 24,
   -2, -33, 3, -8, 34, 0, -50, -7,
   28, 99, 22, 30, 74, 22, 29, 76,
   23, 37, 1, -4, 57, 39, -46, 12,
   40, -27, -52, 14, 4, -31, 101, -27,
   -14, -58, -17, -21, 52, 48, 29, 30,
   -19, 48, 77, 5, 43, -6, -55, 55,
   -28, -2, 40, -7, 28, 25, -37, 55,
   15, -36, 4, -51, -20, -8, -21, -43,
   18, -5, -22, 5, 54, 22, -25, -24,
   -67, -4, 27, 26, -16, 28, -9, -22,
   19, 21, -9, -7, -15, 9, -12, 52,
   12, 47, 32, 17, -38, 68, 16, -48,
   10, 18, 4, 27, -3, 12, -10, 21,
   13, 31, -6, 17, 5, -1, 40, 20,
   12, 14, -37, -4, -62, -36, -40, 45,
   5, 14, -84, 35, -5, 24, 13, -45,
   -45, -12, -15, 35, 40, -30, 40, 13,
   -43, -70, -52, -63, -10, 14, -65, -19,
   -2, -22, 31, -9, -6, 41, 29, 38,
   25, 49, 30, 30, 21, -10, -67, 29,
   -21, -9, 7, -13, 21, -12, -20, 6,
   0, -4, -58, -32, 76, 13, 65, 35,
   -32, 15, 20, 55, 28, 4, -49, 19,
   11, 125, 6, 24, 23, -69, 13, 30,
   23, 18, 56, 2, 5, 25, 44, 75,
   29, -70, -64, -39, -82, 16, -41, -28,
   40, 0, 62, 10, -8, 40, 5, 18,
   22, 52, -11, 70, 60, 62, -31, -24,
   38, -58, 7, -8, 11, -7, -12, 56,
   -43, -106, 6, -22, 28, 24, 7, 3,
   13, 17, 13, 98, -43, -28, -24, -63,
   -21, 8, -11, -2, -63, -90, -51, 41,
   -73, -40, 8, 29, 7, 9, 1, 10,
   -32, -24, -13, -12, 11, 6, -61, 24,
   -54, 6, -14, -16, 27, 34, 41, 60,
   20, 14, -13, -24, 12, -58, 4, 27,
   -36, 53, 30, -6, 13, -7, 25, 15,
   -21, 51, -27, 61, -26, -47, 2, -11,
   -26, -70, -19, 63, -24, 89, -35, 4,
   1, -42, 59, 16, -11, -36, -24, -12,
   113, -61, 68, 76, -30, -1, 26, -7,
   15, -59, -1, 6, -68, 4, -86, 5,
   3, 119, 31, 16, 1, -4, 15, -47,
   82, 48, -30, 9, 13, 6, -54, 26,
   15, 20, 77, -26, 19, 21, 10, 44,
   -32, -22, 34, 33, 28, 113, 6, -24,
   8, 18, 5, -9, 7, 13, -35, 59,
   -53, -4, -41, -61, -20, -44, -32, 46,
   24, -26, -47, 11, 6, 36, 9, -5,
   -6, 11, 5, 16, -101, -55, -55, -31,
   -87, -20, 82, 34, -5, -79, 6, -13,
   18, -33, 23, 11, 30, -31, -21, 44,
   -33, 48, -21, -24, 5, 11, -11, -1,
   -8, 27, -22, 1, -28, -87, 41, -11,
   -10, -5, 6, -18, -46, 0, 72, 38,
   74, 45, -12, -42, 4, 6, 4, -9,
   15, -9, -122, 29, -13, 41, -27, 14,
   35, -21, -3, -10, 3, 39, 1, 50,
   -80, 101, -45, 20, 31, 68, -14, 30,
   -10, 93, 0, -29, -73, -2, -28, -24,
   21, -2, 25, -40, -40, -9, 48, 70,
   1, -41, -5, -14, 44, -15, 21, -37,
   -30, -35, 1, 35, -36, 0, -14, 47,
   -9, -18, 6, -55, 31, 21, -33, 33,
   51, -71, 23, 10, 11, 18, 32, -24,
   43, 77, -44, 62, -10, 54, -27, 44,
   -42, 40, -25, -57, -5, 41, 17, -11,
   -18, -11, -60, -23, 43, 16, -3, 7,
   58, -30, 25, -34, 21, 53, 37, -28,
   -20, -27, -46, 3, -39, -1, -14, -33,
   10, -16, -18, 1, -29, -95, 2, 17,
   27, -30, -36, -41, -7, -31, -50, -66,
   1, -13, -21, 50, 14, -62, 30, -67,
   21, 47, -25, 9, 2, 18, 50, 7,
   51, 4, -17, 34, -30, -11, 25, 2,
   20, 60, 25, -11, 2, 22, -14, -50,
   78, 73, 67, 2, -43, 31, -55, 66,
   11, 0, -68, 27, 13, -3, 25, -37,
   -10, 8, -18, -4, -61, 67, -37, -93,
   10, -27, 76, -80, 33, 25, 19, -23,
   -13, -11, -9, 10, 32, -45, 3, -57,
   -36, -4, -73, -3, -29, -18, -7, -23,
   -57, -24, 33, -30, -73, 13, -45, 98,
   21, 6, 85, -11, -81, -72, 24, -40,
   -18, -26, -7, 38, 22, 17, -31, 5,
   -5, 2, 1, -96, -41, 34, -18, 30,
   44, -2, -31, 16, -58, -58, 9, 38,
   -31, 49, -31, -8, -43, -22, -20, -4,
   -16, -17, -2, 26, 37, -25, 42, 29,
   -90, 11, -47, 43, -30, -7, -21, -13,
   91, 30, -23, 36, 33, 7, 23, -26,
   19, 21, 92, 75, -47, 21, -16, 25,
   5, 1, 59, 38, 18, -20, -44, -18,
   -78, -80, -19, -41, 56, -23, 30, 41,
   -15, 25, 2, -12, 33, -6, 14, -42,
   -62, 19, 51, -39, 56, 50, -15, -29,
   -24, -37, 36, -40, 13, 117, 12, 64,
   -45, -20, 28, -27, -6, 4, 25, -12,
   12, 42, 25, 18, 19, 11, -3, 11,
   -13, -11, 75, 22, -9, 25, 32, 23,
   28, -34, -7, 50, -13, -37, 28, -27,
   42, -8, 70, -20, 14, 58, 31, -46,
   38, 49, 35, 22, -36, -21, -15, -77,
   -21, 3, 17, 29, 52, 12, 60, 2,
   12, -30, 0, -62, -52, 14, -9, -23,
   -23, 21, 74, -7, -33, 21, 66, -47,
   57, 14, -43, -13, -2, -51, -37, 42,
   -40, 14, 32, -58, 16, 15, -53, -22,
   50, -5, -11, 38, -28, 40, 32, -55,
   37, -4, 22, -5, -23, 17, 43, 100,
   31, 17, -33, -10, -8, 14, 26, -35,
   108, 33, 3, -49, 17, -14, 58, -25,
   -10, 26, 55, 123, 10, 85, 47, 33,
   -20, -28, -7, -55, -25, -25, -37, 33,
   7, -26, 51, -106, -71, 22, 19, -70,
   -34, -93, -14, -32, -6, 46, 76, -53,
   -19, 7, 14, 8, -25, -50, 11, -43,
   -4, 64, -13, 19, 1, -90, -2, 19,
   9, -18, 22, -7, -55, 25, -1, -39,
   -30, -36, -10, 29, -17, 30, 26, -1,
   35, 25, -13, 3, 0, 13, -17, -12,
   -16, -30, 23, 63, -50, 39, 82, -1,
   3, 31, 9, -29, -75, -26, 43, -32,
   -11, -61, 72, 46, -18, 42, -1, 18,
   34, 59, -25, 17, -38, -68, 60, 26,
   8, -107, -8, 23, -87, -5, 45, -12,
   23, -26, 17, 24, 46, 25, -61, 76,
   6, 31, -49, -17, 10, 37, 16, 38,
   45, -27, -6, 12, 17, -12, 67, 27,
   11, 9, -3, -27, 26, 41, 34, 22,
   -39, 39, 23, 35, -74, -21, 37, -45,
   44, 0, -13, -43, 8, 67, -7, 42,
   -22, 19, -2, -99, -44, 30, -15, -67,
   42, 30, 11, -30, -19, 19, -39, -51,
   -38, -56, 3, -85, 108, 5, -15, 42,
   43, -26, -64, 44, 10, -12, -55, -125,
   -36, 38, 13, -23, 4, 35, -19, -84,
   -30, -6, -5, 34, 15, 6, -37, -83,
   15, 6, -53, -10, -17, 21, -18, -8,
   44, 41, 48, 41, 34, 40, 0, -8,
   15, 41, 70, 42, -26, -38, 3, 2,
   36, 1, -18, -13, -9, -2, 27, -15,
   -48, -8, -13, 30, -8, -41, 49, 10,
   17, 1, 40, 20, 7, -20, -12, -41,
   44, -12, 17, 20, -19, 3, 45, -21,
   38, 116, 33, -44, -46, -2, -38, 29,
   48, 25, 17, -20, 7, 38, -59, -23,
   19, 24, 39, -49, 24, 14, 27, 26,
   -69, 7, 3, -9, -12, 3, 7, -7,
   -15, -46, 73, -42, 21, 10, -88, -25,
   -125, -1, 4, -10, -57, -59, 25, -45,
   32, 13, 8, -56, -15, 113, -127, -49,
   -27, 18, 112, -26, 66, -41, -26, 31,
   -6, 38, 45, -33, -42, -9, 61, -56,
   -15, -1, -15, 70, -6, -15, -19, 28,
   41, -26, 34, 39, -25, -4, 69, 120,
   1, -25, -44, 83, -3, -35, 65, 41,
   -14, 28, 24, 22, 40, -2, 35, -24,
   -65, -21, 90, 4, -3, 16, 4, -24,
   -20, -19, -36, 16, 4, -60, 28, -20,
   11, -15, -41, 6, 5, -28, 14, 28,
   -23, 13, 42, 33, 16, -45, -31, -59,
   -6, 21, -25, 13, 73, 8, -2, 20,
   -3, 4, 38, 23, 82, -21, -2, 50,
   -18, 6, 40, -32, 15, -32, -5, 6,
   0, -78, -55, -40, -13, -30, -7, 5,
   -113, 61, 36, 81, 37, 107, 66, -8,
   -13, -62, 31, -43, 13, 55, 1, 30,
   -44, -46, 25, -14, -54, -5, 45, -1,
   82, -4, 25, -9, -5, 55, -58, -94,
   58, -11, 93, 37, -16, -44, 2, -40,
   0, 19, -20, -9, -12, -40, 7, -14,
   0, -28, 23, 29, 23, -15, 10, -69,
   -25, -118, -44, 75, 43, -11, 67, 2,
   48, -58, 11, 75, -12, -55, -20, 49,
   15, -65, -10, -24, 9, 4, -37, -49,
   3, 24, 26, 38, -3, 13, 12, -35,
   -8, 12, 13, 12, -24, 13, -14, -34,
   -60, 3, -50, -14, -10, 74, -15, 56,
   43, -3, 45, 41, 47, -4, -22, -77,
   2, 32, 33, 22, -11, -28, -16, 35,
   23, 36, 26, -50, -18, 33, -19, 6,
   38, 17, -33, 47, -43, -9, 15, 29,
   -10, 48, 101, 63, 84, 52, 0, 65,
   -42, 33, 20, 30, 42, 33, 17, -79,
   -1, 4, 47, 49, 89, 84, -81, -9,
   -20, -40, -6, -56, -41, 27, -5, 35,
   33, 6, 45, 17, 28, 31, -15, 0,
   55, -14, -10, -37, 54, -1, 21, 70,
   -77, 61, -91, 19, -32, 33, 43, 51,
   17, -33, -44, 23, 12, -3, -1, 38,
   23, 4, -19, 20, 53, -18, -30, 9,
   22, 28, 55, 3, 17, -58, 72, 70,
   30, 10, 28, 50, 59, 30, 23, 19,
   -47, 27, 15, 30, -24, -12, -74, 25,
   -14, -62, 46, -38, -9, 36, -6, 31,
   -3, 59, -46, -74, 13, -26, 4, 3,
   -28, -42, -20, 25, 53, -21, -12, -59,
   13, 51, -10, -8, -1, 86, -23, 20,
   37, -14, 22, -11, 11, -35, 28, 61,
   36, 36, -7, 20, 55, 19, 48, 19,
   28, 67, -3, 1, 76, -42, 29, -42,
   20, -30, 30, 5, 7, 40, 16, -65,
   16, -8, 18, 23, -28, -51, 42, 24,
   92, 45, 19, 25, -36, 9, -49, -11,
   -62, 35, -16, -5, 1, 23, -55, 13,
   -17, 14, -76, 10, 27, -19, 31, -98,
   -24, 7, -92, -1, -58, 17, 22, 1,
   -14, 5, 14, 19, 14, -40, 16, -52,
   11, -30, -25, 33, -10, -6, 64, -14,
   -62, 64, 59, 51, -32, -48, -14, -3,
   2, -60, 21, 19, 27, -24, 50, -18,
   5, 16, -30, -21, -85, -38, -10, -23,
   14, 49, 19, 21, -19, -47, 11, 20,
   -22, -32, 12, 36, -4, 6, -42, 3,
   -4, -26, -37, -28, 18, -46, -14, 10,
   -30, 18, -12, 91, 6, -5, 35, -32,
   10, 18, -57, -14, 21, 7, -100, -35,
   28, 43, -33, 25, 14, -2, 13, 25,
   51, -15, -21, -8, 22, 6, 5, 12,
   109, -29, 7, 55, 5, -2, 32, 5,
   41, -12, 32, -14, 30, 13, 26, 35,
   -33, 39, 29, 3, -8, -25, -37, 41,
   19, -28, -72, -28, 55, -10, 73, -7,
   59, 21, 15, -33, 1, 2, 2, 73,
   34, 6, -58, 85, 16, -43, -15, -52,
   1, 9, 9, 15, 15, 31, -17, 17,
   -1, -49, 31, -6, -56, -38, -21, -19,
   -12, 6, 5, 25, -21, -11, 56, 23,
   67, 15, 40, -52, -29, 27, 26, 18,
   53, 23, -36, -21, 2, -20, 18, 21,
   51, -3, -18, 49, 38, -70, -67, 32,
   -3, -18, -43, 3, 27, -33, -24, -69,
   27, 16, -23, 62, 2, 59, -4, 60,
   12, 4, 44, -10, -48, -5, -6, 10,
   18, 21, 6, 30, -5, 8, 13, 83,
   -25, -22, -2, -13, 30, -48, -9, 4,
   11, -8, -1, 2, -26, -26, -8, -35,
   -44, -27, 19, 60, 45, 89, 56, 15,
   21, -51, 40, -41, -28, 1, -12, 17,
   -14, 9, 17, 68, -69, 30, -5, 27,
   53, 5, 76, 42, 42, 44, 48, 31,
   22, 16, 41, -102, -27, 37, -14, 37,
   80, 19, 29, -51, -34, 115, -75, 30,
   -58, 11, 30, -34, 14, 34, -5, 51,
   8, 12, -55, -1, 0, 57, -17, -22,
   13, -61, -9, -74, 25, 9, 14, -45,
   4, 20, -40, 7, -24, 53, 33, 26,
   -15, -14, 99, -13, -5, 22, 19, 7,
   -30, 65, 100, -66, -25, -2, 7, 3,
   -44, 35, -25, -46, 36, 4, 25, 15,
   11, -63, 19, -21, 29, -2, 19, 73,
   -13, -24, -30, 10, -19, 53, -22, 6,
   32, 36, 51, 28, 27, 11, -43, 15,
   -36, 40, -9, -5, -20, 8, 10, -17,
   -61, 36, -1, 24, 62, -54, 15, -21,
   -28, 45, 1, -1, -65, 84, 65, 2,
   37, 45, -19, 42, -16, -8, 3, -32,
   31, -78, 100, -71, 26, -36, 125, 17,
   50, 55, -46, 25, 35, 14, 87, -62,
   16, -14, 46, -55, 7, 10, -31, 36,
   12, 26, 8, 6, 39, 67, -95, 71,
   11, -13, -4, -25, 17, 29, 37, -4,
   21, -55, -24, 51, 17, 33, 19, -3,
   -47, 5, 16, 93, -10, -32, 34, 6,
   -99, -28, 1, 2, -16, -28, -36, 21,
   -6, -34, -13, -73, -29, -30, -28, -13,
   22, -25, 8, -45, -31, -49, -19, 47,
   -15, 77, -35, -16, 5, -58, 10, 66,
   35, 54, -10, 65, -14, 1, -25, -19,
   -10, 21, -14, 20, -20, 18, 29, 42,
   -68, 36, -9, -7, -16, 18, -19, 58,
   10, -60, 7, -31, 2, 60, 14, 33,
   -25, -7, 16, -18, 57, -22, 13, -20,
   -2, 33, 15, -8, -86, 54, -31, -20,
   -1, -20, -12, -41, -44, 14, -10, -5,
   16, 9, 53, -69, 18, 21, 5, 53,
   -37, -46, -11, -96, -6, -11, 48, -125,
   39, 22, 39, -18, 3, 20, -7, -40,
   -34, -45, -1, -27, 29, 41, -51, -15,
   -11, -54, 47, -5, 0, -39, -5, 8,
   7, 0, 9, -3, -22, -4, 108, 33,
   14, 84, -9, -65, 8, 10, -41, -27,
   15, 31, 14, -7, 39, 30, -35, 33,
   59, 4, -21, 33, -39, 40, 9, -4,
   -58, -13, 2, -43, 7, 12, 49, -14,
   -12, -11, -4, 16, 71, 26, 6, -11,
   18, -32, 37, -38, -20, -25, -21, -16,
   -30, 3, -18, -54, 1, -5, 25, 37,
   33, -28, 6, -22, 4, 22, 44, 60,
   48, 36, 26, -10, 33, 57, 3, -10,
   46, -1, 65, 7, -12, -7, 42, 98,
   11, 4, -73, 3, -13, -6, 63, -52,
   0, 9, 4, 58, -17, -25, 66, 8,
   -4, -24, -23, 51, -20, 93, 4, 1,
   1, -50, -22, -35, 1, 32, 39, -36,
   38, -15, -12, 5, 54, -19, 3, -28,
   -7, -17, -14, -41, 72, 29, 51, -47,
   75, -4, -77, 113, 42, 22, 29, 12,
   36, 16, -6, -25, -8, 23, -36, -27,
   -9, -35, -14, 6, 24, 10, -38, -16,
   -19, 24, 38, -7, 28, 27, 25, -32,
   4, -30, -65, -60, -41, -11, 24, -36,
   -61, 64, -88, -14, -23, -7, 30, -60,
   33, 47, 22, 30, 5, -19, 24, 6,
   -31, -9, -127, 7, 21, 15, -70, -100,
   50, -38, -9, 40, 0, 59, -13, -9,
   -35, 33, 23, 55, 52, -9, -55, 84,
   -17, -32, -39, -74, 7, 19, -54, 14,
   35, 4, -53, 4, 28, -84, -3, -36,
   16, 4, 17, 50, 33, -45, -48, 20,
   39, -11, 71, -24, 48, 3, 9, -30,
   -42, 92, 20, 3, 37, 14, 12, -30,
   -25, -3, -12, 21, -24, 95, -59, 12,
   80, 26, -44, -16, -2, -36, -6, 13,
   -29, 25, -69, 0, 41, 36, 27, -32,
   26, 48, 16, -65, -28, 59, 18, 30,
   28, -34, -38, 30, 16, 26, 45, -25,
   17, 51, -9, 43, -14, 35, 1, -28,
   21, -4, -35, -12, 28, -44, -13, 38,
   -27, -29, -12, -43, 18, 47, -30, 20,
   45, 22, 1, 38, 30, 17, -1, 66,
   -39, 66, -21, -20, -8, 1, 23, 50,
   12, 13, 70, 64, 22, 7, -2, 37,
   -3, -71, -14, 44, 3, -25, 64, -10,
   46, -25, -28, -14, 26, -30, 9, 21,
   -39, -36, -34, 73, -18, 12, -68, 44,
   39, 4, 18, -25, 86, -68, 9, -9,
   29, -21, 18, -8, 56, 32, 48, 12,
   23, 26, 121, 51, 18, 66, 25, 33,
   -54, 38, -15, 77, 5, 121, -15, 13,
   44, -29, -37, -21, 11, 20, 0, -37,
   40, 77, 3, 26, 49, 7, 36, -28,
   -27, 40, 5, -13, 49, -31, 3, -8,
   -71, -13, -18, 26, -8, 29, 31, -32,
   -6, 26, 20, 1, -29, 6, -15, 47,
   4, 10, -26, -28, -34, -75, 54, -23,
   -4, -97, 19, 127, 39, -21, 6, 11,
   -47, 13, -36, -23, -50, -32, -34, -22,
   -37, 95, 15, -17, 9, -61, 23, -28,
   19, -3, 44, 34, 31, -47, -21, 13,
   -36, 34, -125, 11, 2, -22, -97, 16,
   81, 14, 33, 33, 38, -94, 6, -22,
   -54, -72, 49, 11, 26, -21, -28, 76,
   -27, -41, -21, 3, -10, -40, 5, 53,
   52, 59, 26, -19, 26, -56, 83, -15,
   -34, -3, 82, -12, 18, 45, 5, -17,
   34, -28, 17, -4, -5, 6, -9, 63,
   1, 27, -22, -13, -39, 51, 51, -39,
   -21, 1, -9, 49, 30, 5, 19, -42,
   11, -18, 44, 6, 3, 42, 23, -21,
   -12, 16, 23, 38, -5, 10, 2, 38,
   -15, -48, 33, -47, -20, 3, 3, 11,
   57, 4, 15, -40, -54, -18, 13, -6,
   9, -2, 22, -1, 4, 31, 12, -16,
   -36, -45, 25, 23, 33, 19, 47, -5,
   69, 23, -46, 27, 12, 27, 41, -6,
   -2, 54, 29, 24, -1, -29, 4, -6,
   -24, 11, -30, -17, 32, 26, 5, -3,
   -69, 5, -71, 56, -13, 32, 36, -37,
   -3, -38, 21, 60, -2, 7, 19, -21,
   32, -12, -36, -60, 43, -8, 58, 27,
   -21, 17, -36, 27, -5, -38, 16, -7,
   40, -5, 35, -19, -4, 8, 10, -9,
   -97, -84, 19, 64, 15, 16, -29, -30,
   -69, -15, -24, -79, -81, 12, -7, 20,
   8, -24, 31, -13, -63, -5, 14, -32,
   34, -16, 8, -43, -7, 57, 41, 20,
   43, 72, -5, -97, -17, 95, -15, 87,
   66, 19, -5, 25, 44, -39, 5, -25,
   16, -34, -44, -10, -12, 18, 20, -26,
   -54, -12, -16, -8, -55, -2, 78, 15,
   -59, 52, 49, 27, -18, -17, -16, 8,
   -7, -10, -38, 43, 65, -12, 10, -3,
   -23, -45, 32, -51, 10, 45, 23, -29,
   -4, 10, 37, 28, 15, -21, -42, -10,
   -38, 10, -7, 14, -25, 3, 48, -23,
   -44, -16, 10, 35, 2, -26, -38, -39,
   34, 105, 8, 34, 5, 9, 32, 39,
   28, 65, -7, -43, -25, 6, 20, -29,
   -18, 2, -30, 30, 17, 15, 26, -60,
   -4, -47, 40, -9, -20, -4, 7, 22,
   -43, -5, 43, 68, -30, 56, 69, 11,
   -6, 27, 61, -26, -49, 71, -26, 43,
   -65, 62, 56, 16, -15, -25, -29, -25,
   20, -17, 36, 14, 8, 73, 56, 4,
   -1, 33, -39, -73, 44, 16, -2, -52,
   -11, 38, 19, 30, -20, 31, -53, -60,
   34, 34, -1, -71, 10, 12, 35, 45,
   -6, 18, -57, -27, -5, 9, -59, -72,
   -6, -10, -26, -14, -3, -24, 7, 38,
